digraph Tree {
node [shape=box] ;
0 [label="X[152] <= -0.319\ngini = 0.5\nsamples = 23320\nvalue = [11660, 11660]"] ;
1 [label="X[64] <= -0.458\ngini = 0.445\nsamples = 17498\nvalue = [11660, 5838]"] ;
0 -> 1 [labeldistance=2.5, labelangle=45, headlabel="True"] ;
2 [label="X[79] <= 2.001\ngini = 0.258\nsamples = 1346\nvalue = [205, 1141]"] ;
1 -> 2 ;
3 [label="X[127] <= 1.182\ngini = 0.149\nsamples = 1213\nvalue = [98, 1115]"] ;
2 -> 3 ;
4 [label="X[72] <= 1.779\ngini = 0.07\nsamples = 1080\nvalue = [39, 1041]"] ;
3 -> 4 ;
5 [label="X[55] <= 1.733\ngini = 0.056\nsamples = 1072\nvalue = [31, 1041]"] ;
4 -> 5 ;
6 [label="X[131] <= 2.046\ngini = 0.043\nsamples = 1058\nvalue = [23, 1035]"] ;
5 -> 6 ;
7 [label="X[10] <= 1.193\ngini = 0.035\nsamples = 1054\nvalue = [19, 1035]"] ;
6 -> 7 ;
8 [label="X[7] <= 2.514\ngini = 0.021\nsamples = 1027\nvalue = [11, 1016]"] ;
7 -> 8 ;
9 [label="X[3] <= -1.241\ngini = 0.017\nsamples = 1025\nvalue = [9, 1016]"] ;
8 -> 9 ;
10 [label="gini = 0.0\nsamples = 1\nvalue = [1, 0]"] ;
9 -> 10 ;
11 [label="X[100] <= 1.867\ngini = 0.016\nsamples = 1024\nvalue = [8, 1016]"] ;
9 -> 11 ;
12 [label="X[108] <= 2.025\ngini = 0.014\nsamples = 1023\nvalue = [7, 1016]"] ;
11 -> 12 ;
13 [label="X[95] <= -1.956\ngini = 0.01\nsamples = 1018\nvalue = [5, 1013]"] ;
12 -> 13 ;
14 [label="X[85] <= 1.013\ngini = 0.5\nsamples = 2\nvalue = [1, 1]"] ;
13 -> 14 ;
15 [label="gini = 0.0\nsamples = 1\nvalue = [1, 0]"] ;
14 -> 15 ;
16 [label="gini = 0.0\nsamples = 1\nvalue = [0, 1]"] ;
14 -> 16 ;
17 [label="X[193] <= -1.972\ngini = 0.008\nsamples = 1016\nvalue = [4, 1012]"] ;
13 -> 17 ;
18 [label="X[80] <= 0.522\ngini = 0.444\nsamples = 3\nvalue = [1, 2]"] ;
17 -> 18 ;
19 [label="gini = 0.0\nsamples = 2\nvalue = [0, 2]"] ;
18 -> 19 ;
20 [label="gini = 0.0\nsamples = 1\nvalue = [1, 0]"] ;
18 -> 20 ;
21 [label="X[142] <= 3.097\ngini = 0.006\nsamples = 1013\nvalue = [3, 1010]"] ;
17 -> 21 ;
22 [label="X[126] <= 2.019\ngini = 0.002\nsamples = 999\nvalue = [1, 998]"] ;
21 -> 22 ;
23 [label="gini = 0.0\nsamples = 995\nvalue = [0, 995]"] ;
22 -> 23 ;
24 [label="X[180] <= -1.015\ngini = 0.375\nsamples = 4\nvalue = [1, 3]"] ;
22 -> 24 ;
25 [label="gini = 0.0\nsamples = 3\nvalue = [0, 3]"] ;
24 -> 25 ;
26 [label="gini = 0.0\nsamples = 1\nvalue = [1, 0]"] ;
24 -> 26 ;
27 [label="X[194] <= -1.684\ngini = 0.245\nsamples = 14\nvalue = [2, 12]"] ;
21 -> 27 ;
28 [label="gini = 0.0\nsamples = 2\nvalue = [2, 0]"] ;
27 -> 28 ;
29 [label="gini = 0.0\nsamples = 12\nvalue = [0, 12]"] ;
27 -> 29 ;
30 [label="X[165] <= -0.638\ngini = 0.48\nsamples = 5\nvalue = [2, 3]"] ;
12 -> 30 ;
31 [label="gini = 0.0\nsamples = 2\nvalue = [2, 0]"] ;
30 -> 31 ;
32 [label="gini = 0.0\nsamples = 3\nvalue = [0, 3]"] ;
30 -> 32 ;
33 [label="gini = 0.0\nsamples = 1\nvalue = [1, 0]"] ;
11 -> 33 ;
34 [label="gini = 0.0\nsamples = 2\nvalue = [2, 0]"] ;
8 -> 34 ;
35 [label="X[197] <= 0.127\ngini = 0.417\nsamples = 27\nvalue = [8, 19]"] ;
7 -> 35 ;
36 [label="X[141] <= 0.041\ngini = 0.245\nsamples = 7\nvalue = [6, 1]"] ;
35 -> 36 ;
37 [label="gini = 0.0\nsamples = 6\nvalue = [6, 0]"] ;
36 -> 37 ;
38 [label="gini = 0.0\nsamples = 1\nvalue = [0, 1]"] ;
36 -> 38 ;
39 [label="X[113] <= 1.458\ngini = 0.18\nsamples = 20\nvalue = [2, 18]"] ;
35 -> 39 ;
40 [label="gini = 0.0\nsamples = 17\nvalue = [0, 17]"] ;
39 -> 40 ;
41 [label="X[165] <= 1.234\ngini = 0.444\nsamples = 3\nvalue = [2, 1]"] ;
39 -> 41 ;
42 [label="gini = 0.0\nsamples = 2\nvalue = [2, 0]"] ;
41 -> 42 ;
43 [label="gini = 0.0\nsamples = 1\nvalue = [0, 1]"] ;
41 -> 43 ;
44 [label="gini = 0.0\nsamples = 4\nvalue = [4, 0]"] ;
6 -> 44 ;
45 [label="X[145] <= 0.919\ngini = 0.49\nsamples = 14\nvalue = [8, 6]"] ;
5 -> 45 ;
46 [label="gini = 0.0\nsamples = 6\nvalue = [0, 6]"] ;
45 -> 46 ;
47 [label="gini = 0.0\nsamples = 8\nvalue = [8, 0]"] ;
45 -> 47 ;
48 [label="gini = 0.0\nsamples = 8\nvalue = [8, 0]"] ;
4 -> 48 ;
49 [label="X[72] <= -0.661\ngini = 0.494\nsamples = 133\nvalue = [59, 74]"] ;
3 -> 49 ;
50 [label="X[126] <= -2.036\ngini = 0.128\nsamples = 58\nvalue = [4, 54]"] ;
49 -> 50 ;
51 [label="gini = 0.0\nsamples = 3\nvalue = [3, 0]"] ;
50 -> 51 ;
52 [label="X[24] <= -3.418\ngini = 0.036\nsamples = 55\nvalue = [1, 54]"] ;
50 -> 52 ;
53 [label="gini = 0.0\nsamples = 1\nvalue = [1, 0]"] ;
52 -> 53 ;
54 [label="gini = 0.0\nsamples = 54\nvalue = [0, 54]"] ;
52 -> 54 ;
55 [label="X[111] <= -0.408\ngini = 0.391\nsamples = 75\nvalue = [55, 20]"] ;
49 -> 55 ;
56 [label="X[134] <= -0.85\ngini = 0.454\nsamples = 23\nvalue = [8, 15]"] ;
55 -> 56 ;
57 [label="gini = 0.0\nsamples = 8\nvalue = [8, 0]"] ;
56 -> 57 ;
58 [label="gini = 0.0\nsamples = 15\nvalue = [0, 15]"] ;
56 -> 58 ;
59 [label="X[181] <= 1.404\ngini = 0.174\nsamples = 52\nvalue = [47, 5]"] ;
55 -> 59 ;
60 [label="X[112] <= 0.352\ngini = 0.041\nsamples = 48\nvalue = [47, 1]"] ;
59 -> 60 ;
61 [label="gini = 0.0\nsamples = 1\nvalue = [0, 1]"] ;
60 -> 61 ;
62 [label="gini = 0.0\nsamples = 47\nvalue = [47, 0]"] ;
60 -> 62 ;
63 [label="gini = 0.0\nsamples = 4\nvalue = [0, 4]"] ;
59 -> 63 ;
64 [label="X[7] <= -1.285\ngini = 0.315\nsamples = 133\nvalue = [107, 26]"] ;
2 -> 64 ;
65 [label="X[182] <= 6.457\ngini = 0.12\nsamples = 94\nvalue = [88, 6]"] ;
64 -> 65 ;
66 [label="X[22] <= 0.897\ngini = 0.083\nsamples = 92\nvalue = [88, 4]"] ;
65 -> 66 ;
67 [label="X[142] <= 3.377\ngini = 0.064\nsamples = 91\nvalue = [88, 3]"] ;
66 -> 67 ;
68 [label="X[39] <= -0.608\ngini = 0.043\nsamples = 90\nvalue = [88, 2]"] ;
67 -> 68 ;
69 [label="gini = 0.0\nsamples = 73\nvalue = [73, 0]"] ;
68 -> 69 ;
70 [label="X[95] <= 0.481\ngini = 0.208\nsamples = 17\nvalue = [15, 2]"] ;
68 -> 70 ;
71 [label="gini = 0.0\nsamples = 2\nvalue = [0, 2]"] ;
70 -> 71 ;
72 [label="gini = 0.0\nsamples = 15\nvalue = [15, 0]"] ;
70 -> 72 ;
73 [label="gini = 0.0\nsamples = 1\nvalue = [0, 1]"] ;
67 -> 73 ;
74 [label="gini = 0.0\nsamples = 1\nvalue = [0, 1]"] ;
66 -> 74 ;
75 [label="gini = 0.0\nsamples = 2\nvalue = [0, 2]"] ;
65 -> 75 ;
76 [label="X[130] <= 2.464\ngini = 0.5\nsamples = 39\nvalue = [19, 20]"] ;
64 -> 76 ;
77 [label="X[28] <= 1.092\ngini = 0.117\nsamples = 16\nvalue = [1, 15]"] ;
76 -> 77 ;
78 [label="gini = 0.0\nsamples = 15\nvalue = [0, 15]"] ;
77 -> 78 ;
79 [label="gini = 0.0\nsamples = 1\nvalue = [1, 0]"] ;
77 -> 79 ;
80 [label="X[115] <= -0.983\ngini = 0.34\nsamples = 23\nvalue = [18, 5]"] ;
76 -> 80 ;
81 [label="X[53] <= 3.478\ngini = 0.32\nsamples = 5\nvalue = [1, 4]"] ;
80 -> 81 ;
82 [label="gini = 0.0\nsamples = 4\nvalue = [0, 4]"] ;
81 -> 82 ;
83 [label="gini = 0.0\nsamples = 1\nvalue = [1, 0]"] ;
81 -> 83 ;
84 [label="X[178] <= 4.613\ngini = 0.105\nsamples = 18\nvalue = [17, 1]"] ;
80 -> 84 ;
85 [label="gini = 0.0\nsamples = 17\nvalue = [17, 0]"] ;
84 -> 85 ;
86 [label="gini = 0.0\nsamples = 1\nvalue = [0, 1]"] ;
84 -> 86 ;
87 [label="X[66] <= -0.289\ngini = 0.412\nsamples = 16152\nvalue = [11455, 4697]"] ;
1 -> 87 ;
88 [label="X[85] <= -0.275\ngini = 0.47\nsamples = 5947\nvalue = [3702, 2245]"] ;
87 -> 88 ;
89 [label="X[80] <= 0.224\ngini = 0.495\nsamples = 2853\nvalue = [1567, 1286]"] ;
88 -> 89 ;
90 [label="X[66] <= -1.019\ngini = 0.499\nsamples = 2219\nvalue = [1148, 1071]"] ;
89 -> 90 ;
91 [label="X[36] <= -0.349\ngini = 0.487\nsamples = 738\nvalue = [310, 428]"] ;
90 -> 91 ;
92 [label="X[36] <= -2.157\ngini = 0.5\nsamples = 450\nvalue = [228, 222]"] ;
91 -> 92 ;
93 [label="X[114] <= -1.628\ngini = 0.271\nsamples = 31\nvalue = [26, 5]"] ;
92 -> 93 ;
94 [label="X[157] <= 1.446\ngini = 0.278\nsamples = 6\nvalue = [1, 5]"] ;
93 -> 94 ;
95 [label="gini = 0.0\nsamples = 5\nvalue = [0, 5]"] ;
94 -> 95 ;
96 [label="gini = 0.0\nsamples = 1\nvalue = [1, 0]"] ;
94 -> 96 ;
97 [label="gini = 0.0\nsamples = 25\nvalue = [25, 0]"] ;
93 -> 97 ;
98 [label="X[132] <= -0.16\ngini = 0.499\nsamples = 419\nvalue = [202, 217]"] ;
92 -> 98 ;
99 [label="X[40] <= -0.608\ngini = 0.489\nsamples = 299\nvalue = [127, 172]"] ;
98 -> 99 ;
100 [label="X[167] <= -1.281\ngini = 0.447\nsamples = 175\nvalue = [59, 116]"] ;
99 -> 100 ;
101 [label="X[190] <= 0.15\ngini = 0.32\nsamples = 10\nvalue = [8, 2]"] ;
100 -> 101 ;
102 [label="gini = 0.0\nsamples = 2\nvalue = [0, 2]"] ;
101 -> 102 ;
103 [label="gini = 0.0\nsamples = 8\nvalue = [8, 0]"] ;
101 -> 103 ;
104 [label="X[87] <= -0.291\ngini = 0.427\nsamples = 165\nvalue = [51, 114]"] ;
100 -> 104 ;
105 [label="X[194] <= 0.292\ngini = 0.473\nsamples = 26\nvalue = [16, 10]"] ;
104 -> 105 ;
106 [label="gini = 0.0\nsamples = 5\nvalue = [0, 5]"] ;
105 -> 106 ;
107 [label="X[97] <= -1.739\ngini = 0.363\nsamples = 21\nvalue = [16, 5]"] ;
105 -> 107 ;
108 [label="X[3] <= -1.44\ngini = 0.494\nsamples = 9\nvalue = [4, 5]"] ;
107 -> 108 ;
109 [label="gini = 0.0\nsamples = 4\nvalue = [0, 4]"] ;
108 -> 109 ;
110 [label="X[204] <= -0.784\ngini = 0.32\nsamples = 5\nvalue = [4, 1]"] ;
108 -> 110 ;
111 [label="gini = 0.0\nsamples = 4\nvalue = [4, 0]"] ;
110 -> 111 ;
112 [label="gini = 0.0\nsamples = 1\nvalue = [0, 1]"] ;
110 -> 112 ;
113 [label="gini = 0.0\nsamples = 12\nvalue = [12, 0]"] ;
107 -> 113 ;
114 [label="X[139] <= 0.778\ngini = 0.377\nsamples = 139\nvalue = [35, 104]"] ;
104 -> 114 ;
115 [label="X[26] <= -0.379\ngini = 0.349\nsamples = 133\nvalue = [30, 103]"] ;
114 -> 115 ;
116 [label="X[42] <= 1.14\ngini = 0.499\nsamples = 21\nvalue = [10, 11]"] ;
115 -> 116 ;
117 [label="X[4] <= -1.851\ngini = 0.32\nsamples = 10\nvalue = [8, 2]"] ;
116 -> 117 ;
118 [label="gini = 0.0\nsamples = 2\nvalue = [0, 2]"] ;
117 -> 118 ;
119 [label="gini = 0.0\nsamples = 8\nvalue = [8, 0]"] ;
117 -> 119 ;
120 [label="X[184] <= -2.01\ngini = 0.298\nsamples = 11\nvalue = [2, 9]"] ;
116 -> 120 ;
121 [label="X[148] <= -0.46\ngini = 0.444\nsamples = 3\nvalue = [2, 1]"] ;
120 -> 121 ;
122 [label="gini = 0.0\nsamples = 2\nvalue = [2, 0]"] ;
121 -> 122 ;
123 [label="gini = 0.0\nsamples = 1\nvalue = [0, 1]"] ;
121 -> 123 ;
124 [label="gini = 0.0\nsamples = 8\nvalue = [0, 8]"] ;
120 -> 124 ;
125 [label="X[64] <= 0.452\ngini = 0.293\nsamples = 112\nvalue = [20, 92]"] ;
115 -> 125 ;
126 [label="X[165] <= 2.189\ngini = 0.184\nsamples = 88\nvalue = [9, 79]"] ;
125 -> 126 ;
127 [label="X[158] <= 2.069\ngini = 0.15\nsamples = 86\nvalue = [7, 79]"] ;
126 -> 127 ;
128 [label="X[82] <= -1.157\ngini = 0.113\nsamples = 83\nvalue = [5, 78]"] ;
127 -> 128 ;
129 [label="gini = 0.0\nsamples = 1\nvalue = [1, 0]"] ;
128 -> 129 ;
130 [label="X[178] <= -3.556\ngini = 0.093\nsamples = 82\nvalue = [4, 78]"] ;
128 -> 130 ;
131 [label="gini = 0.0\nsamples = 1\nvalue = [1, 0]"] ;
130 -> 131 ;
132 [label="X[180] <= -0.707\ngini = 0.071\nsamples = 81\nvalue = [3, 78]"] ;
130 -> 132 ;
133 [label="gini = 0.0\nsamples = 1\nvalue = [1, 0]"] ;
132 -> 133 ;
134 [label="X[205] <= -2.592\ngini = 0.049\nsamples = 80\nvalue = [2, 78]"] ;
132 -> 134 ;
135 [label="X[23] <= -0.961\ngini = 0.5\nsamples = 2\nvalue = [1, 1]"] ;
134 -> 135 ;
136 [label="gini = 0.0\nsamples = 1\nvalue = [0, 1]"] ;
135 -> 136 ;
137 [label="gini = 0.0\nsamples = 1\nvalue = [1, 0]"] ;
135 -> 137 ;
138 [label="X[157] <= 2.249\ngini = 0.025\nsamples = 78\nvalue = [1, 77]"] ;
134 -> 138 ;
139 [label="gini = 0.0\nsamples = 73\nvalue = [0, 73]"] ;
138 -> 139 ;
140 [label="X[157] <= 2.407\ngini = 0.32\nsamples = 5\nvalue = [1, 4]"] ;
138 -> 140 ;
141 [label="gini = 0.0\nsamples = 1\nvalue = [1, 0]"] ;
140 -> 141 ;
142 [label="gini = 0.0\nsamples = 4\nvalue = [0, 4]"] ;
140 -> 142 ;
143 [label="X[40] <= -1.582\ngini = 0.444\nsamples = 3\nvalue = [2, 1]"] ;
127 -> 143 ;
144 [label="gini = 0.0\nsamples = 1\nvalue = [0, 1]"] ;
143 -> 144 ;
145 [label="gini = 0.0\nsamples = 2\nvalue = [2, 0]"] ;
143 -> 145 ;
146 [label="gini = 0.0\nsamples = 2\nvalue = [2, 0]"] ;
126 -> 146 ;
147 [label="X[128] <= 1.735\ngini = 0.497\nsamples = 24\nvalue = [11, 13]"] ;
125 -> 147 ;
148 [label="X[39] <= 0.341\ngini = 0.401\nsamples = 18\nvalue = [5, 13]"] ;
147 -> 148 ;
149 [label="gini = 0.0\nsamples = 3\nvalue = [3, 0]"] ;
148 -> 149 ;
150 [label="X[67] <= 1.341\ngini = 0.231\nsamples = 15\nvalue = [2, 13]"] ;
148 -> 150 ;
151 [label="gini = 0.0\nsamples = 12\nvalue = [0, 12]"] ;
150 -> 151 ;
152 [label="X[127] <= -0.095\ngini = 0.444\nsamples = 3\nvalue = [2, 1]"] ;
150 -> 152 ;
153 [label="gini = 0.0\nsamples = 2\nvalue = [2, 0]"] ;
152 -> 153 ;
154 [label="gini = 0.0\nsamples = 1\nvalue = [0, 1]"] ;
152 -> 154 ;
155 [label="gini = 0.0\nsamples = 6\nvalue = [6, 0]"] ;
147 -> 155 ;
156 [label="X[201] <= -0.702\ngini = 0.278\nsamples = 6\nvalue = [5, 1]"] ;
114 -> 156 ;
157 [label="gini = 0.0\nsamples = 5\nvalue = [5, 0]"] ;
156 -> 157 ;
158 [label="gini = 0.0\nsamples = 1\nvalue = [0, 1]"] ;
156 -> 158 ;
159 [label="X[167] <= 0.828\ngini = 0.495\nsamples = 124\nvalue = [68, 56]"] ;
99 -> 159 ;
160 [label="X[192] <= 0.159\ngini = 0.461\nsamples = 86\nvalue = [55, 31]"] ;
159 -> 160 ;
161 [label="X[179] <= 0.557\ngini = 0.43\nsamples = 80\nvalue = [55, 25]"] ;
160 -> 161 ;
162 [label="X[149] <= 2.391\ngini = 0.077\nsamples = 25\nvalue = [24, 1]"] ;
161 -> 162 ;
163 [label="gini = 0.0\nsamples = 24\nvalue = [24, 0]"] ;
162 -> 163 ;
164 [label="gini = 0.0\nsamples = 1\nvalue = [0, 1]"] ;
162 -> 164 ;
165 [label="X[121] <= 0.66\ngini = 0.492\nsamples = 55\nvalue = [31, 24]"] ;
161 -> 165 ;
166 [label="X[193] <= -0.319\ngini = 0.397\nsamples = 33\nvalue = [24, 9]"] ;
165 -> 166 ;
167 [label="gini = 0.0\nsamples = 15\nvalue = [15, 0]"] ;
166 -> 167 ;
168 [label="X[153] <= -0.144\ngini = 0.5\nsamples = 18\nvalue = [9, 9]"] ;
166 -> 168 ;
169 [label="gini = 0.0\nsamples = 6\nvalue = [0, 6]"] ;
168 -> 169 ;
170 [label="X[55] <= 1.174\ngini = 0.375\nsamples = 12\nvalue = [9, 3]"] ;
168 -> 170 ;
171 [label="X[46] <= 0.799\ngini = 0.18\nsamples = 10\nvalue = [9, 1]"] ;
170 -> 171 ;
172 [label="gini = 0.0\nsamples = 9\nvalue = [9, 0]"] ;
171 -> 172 ;
173 [label="gini = 0.0\nsamples = 1\nvalue = [0, 1]"] ;
171 -> 173 ;
174 [label="gini = 0.0\nsamples = 2\nvalue = [0, 2]"] ;
170 -> 174 ;
175 [label="X[145] <= 3.348\ngini = 0.434\nsamples = 22\nvalue = [7, 15]"] ;
165 -> 175 ;
176 [label="X[172] <= -0.666\ngini = 0.219\nsamples = 16\nvalue = [2, 14]"] ;
175 -> 176 ;
177 [label="gini = 0.0\nsamples = 2\nvalue = [2, 0]"] ;
176 -> 177 ;
178 [label="gini = 0.0\nsamples = 14\nvalue = [0, 14]"] ;
176 -> 178 ;
179 [label="X[191] <= -2.171\ngini = 0.278\nsamples = 6\nvalue = [5, 1]"] ;
175 -> 179 ;
180 [label="gini = 0.5\nsamples = 2\nvalue = [1, 1]"] ;
179 -> 180 ;
181 [label="gini = 0.0\nsamples = 4\nvalue = [4, 0]"] ;
179 -> 181 ;
182 [label="gini = 0.0\nsamples = 6\nvalue = [0, 6]"] ;
160 -> 182 ;
183 [label="X[175] <= -0.111\ngini = 0.45\nsamples = 38\nvalue = [13, 25]"] ;
159 -> 183 ;
184 [label="X[66] <= -1.043\ngini = 0.26\nsamples = 26\nvalue = [4, 22]"] ;
183 -> 184 ;
185 [label="X[67] <= 1.141\ngini = 0.153\nsamples = 24\nvalue = [2, 22]"] ;
184 -> 185 ;
186 [label="gini = 0.0\nsamples = 22\nvalue = [0, 22]"] ;
185 -> 186 ;
187 [label="gini = 0.0\nsamples = 2\nvalue = [2, 0]"] ;
185 -> 187 ;
188 [label="gini = 0.0\nsamples = 2\nvalue = [2, 0]"] ;
184 -> 188 ;
189 [label="X[184] <= 0.206\ngini = 0.375\nsamples = 12\nvalue = [9, 3]"] ;
183 -> 189 ;
190 [label="gini = 0.0\nsamples = 9\nvalue = [9, 0]"] ;
189 -> 190 ;
191 [label="gini = 0.0\nsamples = 3\nvalue = [0, 3]"] ;
189 -> 191 ;
192 [label="X[87] <= -0.077\ngini = 0.469\nsamples = 120\nvalue = [75, 45]"] ;
98 -> 192 ;
193 [label="X[155] <= -1.23\ngini = 0.239\nsamples = 36\nvalue = [31, 5]"] ;
192 -> 193 ;
194 [label="gini = 0.0\nsamples = 2\nvalue = [0, 2]"] ;
193 -> 194 ;
195 [label="X[203] <= 2.04\ngini = 0.161\nsamples = 34\nvalue = [31, 3]"] ;
193 -> 195 ;
196 [label="X[109] <= -1.818\ngini = 0.062\nsamples = 31\nvalue = [30, 1]"] ;
195 -> 196 ;
197 [label="gini = 0.0\nsamples = 1\nvalue = [0, 1]"] ;
196 -> 197 ;
198 [label="gini = 0.0\nsamples = 30\nvalue = [30, 0]"] ;
196 -> 198 ;
199 [label="X[142] <= -1.226\ngini = 0.444\nsamples = 3\nvalue = [1, 2]"] ;
195 -> 199 ;
200 [label="gini = 0.0\nsamples = 2\nvalue = [0, 2]"] ;
199 -> 200 ;
201 [label="gini = 0.0\nsamples = 1\nvalue = [1, 0]"] ;
199 -> 201 ;
202 [label="X[7] <= 0.597\ngini = 0.499\nsamples = 84\nvalue = [44, 40]"] ;
192 -> 202 ;
203 [label="X[22] <= -0.666\ngini = 0.495\nsamples = 71\nvalue = [32, 39]"] ;
202 -> 203 ;
204 [label="X[149] <= 1.513\ngini = 0.403\nsamples = 25\nvalue = [18, 7]"] ;
203 -> 204 ;
205 [label="X[22] <= -1.043\ngini = 0.486\nsamples = 12\nvalue = [5, 7]"] ;
204 -> 205 ;
206 [label="gini = 0.0\nsamples = 5\nvalue = [0, 5]"] ;
205 -> 206 ;
207 [label="X[200] <= 1.433\ngini = 0.408\nsamples = 7\nvalue = [5, 2]"] ;
205 -> 207 ;
208 [label="gini = 0.0\nsamples = 5\nvalue = [5, 0]"] ;
207 -> 208 ;
209 [label="gini = 0.0\nsamples = 2\nvalue = [0, 2]"] ;
207 -> 209 ;
210 [label="gini = 0.0\nsamples = 13\nvalue = [13, 0]"] ;
204 -> 210 ;
211 [label="X[123] <= 0.915\ngini = 0.423\nsamples = 46\nvalue = [14, 32]"] ;
203 -> 211 ;
212 [label="X[84] <= -0.098\ngini = 0.307\nsamples = 37\nvalue = [7, 30]"] ;
211 -> 212 ;
213 [label="X[75] <= -1.018\ngini = 0.375\nsamples = 4\nvalue = [3, 1]"] ;
212 -> 213 ;
214 [label="gini = 0.0\nsamples = 1\nvalue = [0, 1]"] ;
213 -> 214 ;
215 [label="gini = 0.0\nsamples = 3\nvalue = [3, 0]"] ;
213 -> 215 ;
216 [label="X[133] <= 0.301\ngini = 0.213\nsamples = 33\nvalue = [4, 29]"] ;
212 -> 216 ;
217 [label="X[22] <= 0.944\ngini = 0.444\nsamples = 3\nvalue = [2, 1]"] ;
216 -> 217 ;
218 [label="gini = 0.0\nsamples = 2\nvalue = [2, 0]"] ;
217 -> 218 ;
219 [label="gini = 0.0\nsamples = 1\nvalue = [0, 1]"] ;
217 -> 219 ;
220 [label="X[18] <= 1.052\ngini = 0.124\nsamples = 30\nvalue = [2, 28]"] ;
216 -> 220 ;
221 [label="gini = 0.0\nsamples = 27\nvalue = [0, 27]"] ;
220 -> 221 ;
222 [label="X[46] <= 0.189\ngini = 0.444\nsamples = 3\nvalue = [2, 1]"] ;
220 -> 222 ;
223 [label="gini = 0.0\nsamples = 2\nvalue = [2, 0]"] ;
222 -> 223 ;
224 [label="gini = 0.0\nsamples = 1\nvalue = [0, 1]"] ;
222 -> 224 ;
225 [label="X[196] <= -0.046\ngini = 0.346\nsamples = 9\nvalue = [7, 2]"] ;
211 -> 225 ;
226 [label="gini = 0.0\nsamples = 2\nvalue = [0, 2]"] ;
225 -> 226 ;
227 [label="gini = 0.0\nsamples = 7\nvalue = [7, 0]"] ;
225 -> 227 ;
228 [label="X[83] <= 1.523\ngini = 0.142\nsamples = 13\nvalue = [12, 1]"] ;
202 -> 228 ;
229 [label="gini = 0.0\nsamples = 12\nvalue = [12, 0]"] ;
228 -> 229 ;
230 [label="gini = 0.0\nsamples = 1\nvalue = [0, 1]"] ;
228 -> 230 ;
231 [label="X[67] <= -0.086\ngini = 0.407\nsamples = 288\nvalue = [82, 206]"] ;
91 -> 231 ;
232 [label="X[92] <= -0.568\ngini = 0.489\nsamples = 108\nvalue = [46, 62]"] ;
231 -> 232 ;
233 [label="X[69] <= 0.872\ngini = 0.497\nsamples = 67\nvalue = [36, 31]"] ;
232 -> 233 ;
234 [label="X[204] <= -0.551\ngini = 0.499\nsamples = 59\nvalue = [28, 31]"] ;
233 -> 234 ;
235 [label="X[204] <= -1.409\ngini = 0.431\nsamples = 35\nvalue = [11, 24]"] ;
234 -> 235 ;
236 [label="X[154] <= -0.641\ngini = 0.484\nsamples = 17\nvalue = [10, 7]"] ;
235 -> 236 ;
237 [label="gini = 0.0\nsamples = 5\nvalue = [0, 5]"] ;
236 -> 237 ;
238 [label="X[141] <= -1.895\ngini = 0.278\nsamples = 12\nvalue = [10, 2]"] ;
236 -> 238 ;
239 [label="gini = 0.0\nsamples = 2\nvalue = [0, 2]"] ;
238 -> 239 ;
240 [label="gini = 0.0\nsamples = 10\nvalue = [10, 0]"] ;
238 -> 240 ;
241 [label="X[154] <= -1.854\ngini = 0.105\nsamples = 18\nvalue = [1, 17]"] ;
235 -> 241 ;
242 [label="gini = 0.0\nsamples = 1\nvalue = [1, 0]"] ;
241 -> 242 ;
243 [label="gini = 0.0\nsamples = 17\nvalue = [0, 17]"] ;
241 -> 243 ;
244 [label="X[190] <= -0.15\ngini = 0.413\nsamples = 24\nvalue = [17, 7]"] ;
234 -> 244 ;
245 [label="X[128] <= 0.601\ngini = 0.486\nsamples = 12\nvalue = [5, 7]"] ;
244 -> 245 ;
246 [label="gini = 0.0\nsamples = 6\nvalue = [0, 6]"] ;
245 -> 246 ;
247 [label="X[165] <= 0.841\ngini = 0.278\nsamples = 6\nvalue = [5, 1]"] ;
245 -> 247 ;
248 [label="gini = 0.0\nsamples = 5\nvalue = [5, 0]"] ;
247 -> 248 ;
249 [label="gini = 0.0\nsamples = 1\nvalue = [0, 1]"] ;
247 -> 249 ;
250 [label="gini = 0.0\nsamples = 12\nvalue = [12, 0]"] ;
244 -> 250 ;
251 [label="gini = 0.0\nsamples = 8\nvalue = [8, 0]"] ;
233 -> 251 ;
252 [label="X[24] <= -1.148\ngini = 0.369\nsamples = 41\nvalue = [10, 31]"] ;
232 -> 252 ;
253 [label="gini = 0.0\nsamples = 4\nvalue = [4, 0]"] ;
252 -> 253 ;
254 [label="X[102] <= -0.024\ngini = 0.272\nsamples = 37\nvalue = [6, 31]"] ;
252 -> 254 ;
255 [label="gini = 0.0\nsamples = 18\nvalue = [0, 18]"] ;
254 -> 255 ;
256 [label="X[87] <= 0.994\ngini = 0.432\nsamples = 19\nvalue = [6, 13]"] ;
254 -> 256 ;
257 [label="X[140] <= -0.947\ngini = 0.305\nsamples = 16\nvalue = [3, 13]"] ;
256 -> 257 ;
258 [label="X[71] <= 0.748\ngini = 0.375\nsamples = 4\nvalue = [3, 1]"] ;
257 -> 258 ;
259 [label="gini = 0.0\nsamples = 3\nvalue = [3, 0]"] ;
258 -> 259 ;
260 [label="gini = 0.0\nsamples = 1\nvalue = [0, 1]"] ;
258 -> 260 ;
261 [label="gini = 0.0\nsamples = 12\nvalue = [0, 12]"] ;
257 -> 261 ;
262 [label="gini = 0.0\nsamples = 3\nvalue = [3, 0]"] ;
256 -> 262 ;
263 [label="X[165] <= 2.306\ngini = 0.32\nsamples = 180\nvalue = [36, 144]"] ;
231 -> 263 ;
264 [label="X[159] <= 2.165\ngini = 0.298\nsamples = 176\nvalue = [32, 144]"] ;
263 -> 264 ;
265 [label="X[45] <= -0.955\ngini = 0.263\nsamples = 167\nvalue = [26, 141]"] ;
264 -> 265 ;
266 [label="gini = 0.0\nsamples = 3\nvalue = [3, 0]"] ;
265 -> 266 ;
267 [label="X[140] <= -1.665\ngini = 0.241\nsamples = 164\nvalue = [23, 141]"] ;
265 -> 267 ;
268 [label="X[144] <= 1.674\ngini = 0.375\nsamples = 4\nvalue = [3, 1]"] ;
267 -> 268 ;
269 [label="gini = 0.0\nsamples = 3\nvalue = [3, 0]"] ;
268 -> 269 ;
270 [label="gini = 0.0\nsamples = 1\nvalue = [0, 1]"] ;
268 -> 270 ;
271 [label="X[21] <= -1.808\ngini = 0.219\nsamples = 160\nvalue = [20, 140]"] ;
267 -> 271 ;
272 [label="gini = 0.0\nsamples = 2\nvalue = [2, 0]"] ;
271 -> 272 ;
273 [label="X[161] <= -2.546\ngini = 0.202\nsamples = 158\nvalue = [18, 140]"] ;
271 -> 273 ;
274 [label="gini = 0.0\nsamples = 2\nvalue = [2, 0]"] ;
273 -> 274 ;
275 [label="X[164] <= 0.526\ngini = 0.184\nsamples = 156\nvalue = [16, 140]"] ;
273 -> 275 ;
276 [label="X[131] <= 0.825\ngini = 0.089\nsamples = 107\nvalue = [5, 102]"] ;
275 -> 276 ;
277 [label="X[169] <= -1.429\ngini = 0.056\nsamples = 104\nvalue = [3, 101]"] ;
276 -> 277 ;
278 [label="X[176] <= 1.38\ngini = 0.5\nsamples = 2\nvalue = [1, 1]"] ;
277 -> 278 ;
279 [label="gini = 0.0\nsamples = 1\nvalue = [0, 1]"] ;
278 -> 279 ;
280 [label="gini = 0.0\nsamples = 1\nvalue = [1, 0]"] ;
278 -> 280 ;
281 [label="X[203] <= -0.589\ngini = 0.038\nsamples = 102\nvalue = [2, 100]"] ;
277 -> 281 ;
282 [label="X[192] <= -0.537\ngini = 0.5\nsamples = 2\nvalue = [1, 1]"] ;
281 -> 282 ;
283 [label="gini = 0.0\nsamples = 1\nvalue = [0, 1]"] ;
282 -> 283 ;
284 [label="gini = 0.0\nsamples = 1\nvalue = [1, 0]"] ;
282 -> 284 ;
285 [label="X[87] <= 1.148\ngini = 0.02\nsamples = 100\nvalue = [1, 99]"] ;
281 -> 285 ;
286 [label="gini = 0.0\nsamples = 95\nvalue = [0, 95]"] ;
285 -> 286 ;
287 [label="X[194] <= -0.035\ngini = 0.32\nsamples = 5\nvalue = [1, 4]"] ;
285 -> 287 ;
288 [label="gini = 0.0\nsamples = 4\nvalue = [0, 4]"] ;
287 -> 288 ;
289 [label="gini = 0.0\nsamples = 1\nvalue = [1, 0]"] ;
287 -> 289 ;
290 [label="X[56] <= -0.847\ngini = 0.444\nsamples = 3\nvalue = [2, 1]"] ;
276 -> 290 ;
291 [label="gini = 0.0\nsamples = 2\nvalue = [2, 0]"] ;
290 -> 291 ;
292 [label="gini = 0.0\nsamples = 1\nvalue = [0, 1]"] ;
290 -> 292 ;
293 [label="X[29] <= -0.352\ngini = 0.348\nsamples = 49\nvalue = [11, 38]"] ;
275 -> 293 ;
294 [label="X[89] <= 0.553\ngini = 0.499\nsamples = 19\nvalue = [9, 10]"] ;
293 -> 294 ;
295 [label="X[187] <= 0.218\ngini = 0.298\nsamples = 11\nvalue = [9, 2]"] ;
294 -> 295 ;
296 [label="gini = 0.0\nsamples = 1\nvalue = [0, 1]"] ;
295 -> 296 ;
297 [label="X[1] <= -0.093\ngini = 0.18\nsamples = 10\nvalue = [9, 1]"] ;
295 -> 297 ;
298 [label="gini = 0.0\nsamples = 8\nvalue = [8, 0]"] ;
297 -> 298 ;
299 [label="X[111] <= -0.74\ngini = 0.5\nsamples = 2\nvalue = [1, 1]"] ;
297 -> 299 ;
300 [label="gini = 0.0\nsamples = 1\nvalue = [0, 1]"] ;
299 -> 300 ;
301 [label="gini = 0.0\nsamples = 1\nvalue = [1, 0]"] ;
299 -> 301 ;
302 [label="gini = 0.0\nsamples = 8\nvalue = [0, 8]"] ;
294 -> 302 ;
303 [label="X[120] <= -1.214\ngini = 0.124\nsamples = 30\nvalue = [2, 28]"] ;
293 -> 303 ;
304 [label="gini = 0.0\nsamples = 1\nvalue = [1, 0]"] ;
303 -> 304 ;
305 [label="X[157] <= -0.758\ngini = 0.067\nsamples = 29\nvalue = [1, 28]"] ;
303 -> 305 ;
306 [label="X[63] <= -1.604\ngini = 0.5\nsamples = 2\nvalue = [1, 1]"] ;
305 -> 306 ;
307 [label="gini = 0.0\nsamples = 1\nvalue = [0, 1]"] ;
306 -> 307 ;
308 [label="gini = 0.0\nsamples = 1\nvalue = [1, 0]"] ;
306 -> 308 ;
309 [label="gini = 0.0\nsamples = 27\nvalue = [0, 27]"] ;
305 -> 309 ;
310 [label="X[62] <= -0.417\ngini = 0.444\nsamples = 9\nvalue = [6, 3]"] ;
264 -> 310 ;
311 [label="gini = 0.0\nsamples = 3\nvalue = [0, 3]"] ;
310 -> 311 ;
312 [label="gini = 0.0\nsamples = 6\nvalue = [6, 0]"] ;
310 -> 312 ;
313 [label="gini = 0.0\nsamples = 4\nvalue = [4, 0]"] ;
263 -> 313 ;
314 [label="X[6] <= -0.757\ngini = 0.491\nsamples = 1481\nvalue = [838, 643]"] ;
90 -> 314 ;
315 [label="X[145] <= 0.472\ngini = 0.454\nsamples = 602\nvalue = [392, 210]"] ;
314 -> 315 ;
316 [label="X[11] <= 0.013\ngini = 0.409\nsamples = 397\nvalue = [283, 114]"] ;
315 -> 316 ;
317 [label="X[26] <= 0.041\ngini = 0.456\nsamples = 270\nvalue = [175, 95]"] ;
316 -> 317 ;
318 [label="X[69] <= -0.294\ngini = 0.372\nsamples = 146\nvalue = [110, 36]"] ;
317 -> 318 ;
319 [label="X[133] <= 0.806\ngini = 0.461\nsamples = 89\nvalue = [57, 32]"] ;
318 -> 319 ;
320 [label="X[197] <= 0.127\ngini = 0.436\nsamples = 84\nvalue = [57, 27]"] ;
319 -> 320 ;
321 [label="X[102] <= -1.662\ngini = 0.402\nsamples = 79\nvalue = [57, 22]"] ;
320 -> 321 ;
322 [label="X[139] <= -1.275\ngini = 0.426\nsamples = 13\nvalue = [4, 9]"] ;
321 -> 322 ;
323 [label="X[200] <= 0.106\ngini = 0.32\nsamples = 5\nvalue = [4, 1]"] ;
322 -> 323 ;
324 [label="gini = 0.0\nsamples = 1\nvalue = [0, 1]"] ;
323 -> 324 ;
325 [label="gini = 0.0\nsamples = 4\nvalue = [4, 0]"] ;
323 -> 325 ;
326 [label="gini = 0.0\nsamples = 8\nvalue = [0, 8]"] ;
322 -> 326 ;
327 [label="X[139] <= -0.452\ngini = 0.316\nsamples = 66\nvalue = [53, 13]"] ;
321 -> 327 ;
328 [label="X[113] <= 0.752\ngini = 0.252\nsamples = 61\nvalue = [52, 9]"] ;
327 -> 328 ;
329 [label="X[96] <= -0.33\ngini = 0.444\nsamples = 27\nvalue = [18, 9]"] ;
328 -> 329 ;
330 [label="X[164] <= 1.802\ngini = 0.459\nsamples = 14\nvalue = [5, 9]"] ;
329 -> 330 ;
331 [label="X[81] <= -0.637\ngini = 0.18\nsamples = 10\nvalue = [1, 9]"] ;
330 -> 331 ;
332 [label="gini = 0.0\nsamples = 9\nvalue = [0, 9]"] ;
331 -> 332 ;
333 [label="gini = 0.0\nsamples = 1\nvalue = [1, 0]"] ;
331 -> 333 ;
334 [label="gini = 0.0\nsamples = 4\nvalue = [4, 0]"] ;
330 -> 334 ;
335 [label="gini = 0.0\nsamples = 13\nvalue = [13, 0]"] ;
329 -> 335 ;
336 [label="gini = 0.0\nsamples = 34\nvalue = [34, 0]"] ;
328 -> 336 ;
337 [label="X[194] <= 1.32\ngini = 0.32\nsamples = 5\nvalue = [1, 4]"] ;
327 -> 337 ;
338 [label="gini = 0.0\nsamples = 4\nvalue = [0, 4]"] ;
337 -> 338 ;
339 [label="gini = 0.0\nsamples = 1\nvalue = [1, 0]"] ;
337 -> 339 ;
340 [label="gini = 0.0\nsamples = 5\nvalue = [0, 5]"] ;
320 -> 340 ;
341 [label="gini = 0.0\nsamples = 5\nvalue = [0, 5]"] ;
319 -> 341 ;
342 [label="X[31] <= -1.106\ngini = 0.131\nsamples = 57\nvalue = [53, 4]"] ;
318 -> 342 ;
343 [label="gini = 0.0\nsamples = 1\nvalue = [0, 1]"] ;
342 -> 343 ;
344 [label="X[181] <= -1.1\ngini = 0.101\nsamples = 56\nvalue = [53, 3]"] ;
342 -> 344 ;
345 [label="gini = 0.0\nsamples = 1\nvalue = [0, 1]"] ;
344 -> 345 ;
346 [label="X[66] <= -0.955\ngini = 0.07\nsamples = 55\nvalue = [53, 2]"] ;
344 -> 346 ;
347 [label="X[30] <= -0.198\ngini = 0.5\nsamples = 2\nvalue = [1, 1]"] ;
346 -> 347 ;
348 [label="gini = 0.0\nsamples = 1\nvalue = [1, 0]"] ;
347 -> 348 ;
349 [label="gini = 0.0\nsamples = 1\nvalue = [0, 1]"] ;
347 -> 349 ;
350 [label="X[160] <= -2.067\ngini = 0.037\nsamples = 53\nvalue = [52, 1]"] ;
346 -> 350 ;
351 [label="X[167] <= 1.019\ngini = 0.5\nsamples = 2\nvalue = [1, 1]"] ;
350 -> 351 ;
352 [label="gini = 0.0\nsamples = 1\nvalue = [0, 1]"] ;
351 -> 352 ;
353 [label="gini = 0.0\nsamples = 1\nvalue = [1, 0]"] ;
351 -> 353 ;
354 [label="gini = 0.0\nsamples = 51\nvalue = [51, 0]"] ;
350 -> 354 ;
355 [label="X[73] <= 0.862\ngini = 0.499\nsamples = 124\nvalue = [65, 59]"] ;
317 -> 355 ;
356 [label="X[193] <= -0.22\ngini = 0.489\nsamples = 89\nvalue = [38, 51]"] ;
355 -> 356 ;
357 [label="X[111] <= 0.959\ngini = 0.426\nsamples = 65\nvalue = [20, 45]"] ;
356 -> 357 ;
358 [label="X[16] <= 1.056\ngini = 0.219\nsamples = 32\nvalue = [4, 28]"] ;
357 -> 358 ;
359 [label="gini = 0.0\nsamples = 24\nvalue = [0, 24]"] ;
358 -> 359 ;
360 [label="X[78] <= 0.729\ngini = 0.5\nsamples = 8\nvalue = [4, 4]"] ;
358 -> 360 ;
361 [label="gini = 0.0\nsamples = 4\nvalue = [4, 0]"] ;
360 -> 361 ;
362 [label="gini = 0.0\nsamples = 4\nvalue = [0, 4]"] ;
360 -> 362 ;
363 [label="X[108] <= 0.995\ngini = 0.5\nsamples = 33\nvalue = [16, 17]"] ;
357 -> 363 ;
364 [label="X[200] <= 0.269\ngini = 0.423\nsamples = 23\nvalue = [16, 7]"] ;
363 -> 364 ;
365 [label="X[172] <= -0.804\ngini = 0.408\nsamples = 7\nvalue = [2, 5]"] ;
364 -> 365 ;
366 [label="gini = 0.0\nsamples = 2\nvalue = [2, 0]"] ;
365 -> 366 ;
367 [label="gini = 0.0\nsamples = 5\nvalue = [0, 5]"] ;
365 -> 367 ;
368 [label="X[115] <= -1.378\ngini = 0.219\nsamples = 16\nvalue = [14, 2]"] ;
364 -> 368 ;
369 [label="X[155] <= -1.174\ngini = 0.444\nsamples = 3\nvalue = [1, 2]"] ;
368 -> 369 ;
370 [label="gini = 0.0\nsamples = 1\nvalue = [1, 0]"] ;
369 -> 370 ;
371 [label="gini = 0.0\nsamples = 2\nvalue = [0, 2]"] ;
369 -> 371 ;
372 [label="gini = 0.0\nsamples = 13\nvalue = [13, 0]"] ;
368 -> 372 ;
373 [label="gini = 0.0\nsamples = 10\nvalue = [0, 10]"] ;
363 -> 373 ;
374 [label="X[160] <= 0.001\ngini = 0.375\nsamples = 24\nvalue = [18, 6]"] ;
356 -> 374 ;
375 [label="X[7] <= -1.721\ngini = 0.278\nsamples = 6\nvalue = [1, 5]"] ;
374 -> 375 ;
376 [label="gini = 0.0\nsamples = 1\nvalue = [1, 0]"] ;
375 -> 376 ;
377 [label="gini = 0.0\nsamples = 5\nvalue = [0, 5]"] ;
375 -> 377 ;
378 [label="X[22] <= 0.867\ngini = 0.105\nsamples = 18\nvalue = [17, 1]"] ;
374 -> 378 ;
379 [label="gini = 0.0\nsamples = 17\nvalue = [17, 0]"] ;
378 -> 379 ;
380 [label="gini = 0.0\nsamples = 1\nvalue = [0, 1]"] ;
378 -> 380 ;
381 [label="X[43] <= 2.565\ngini = 0.353\nsamples = 35\nvalue = [27, 8]"] ;
355 -> 381 ;
382 [label="X[53] <= 0.118\ngini = 0.225\nsamples = 31\nvalue = [27, 4]"] ;
381 -> 382 ;
383 [label="X[66] <= -0.894\ngini = 0.128\nsamples = 29\nvalue = [27, 2]"] ;
382 -> 383 ;
384 [label="X[181] <= 0.731\ngini = 0.444\nsamples = 3\nvalue = [1, 2]"] ;
383 -> 384 ;
385 [label="gini = 0.5\nsamples = 2\nvalue = [1, 1]"] ;
384 -> 385 ;
386 [label="gini = 0.0\nsamples = 1\nvalue = [0, 1]"] ;
384 -> 386 ;
387 [label="gini = 0.0\nsamples = 26\nvalue = [26, 0]"] ;
383 -> 387 ;
388 [label="gini = 0.0\nsamples = 2\nvalue = [0, 2]"] ;
382 -> 388 ;
389 [label="gini = 0.0\nsamples = 4\nvalue = [0, 4]"] ;
381 -> 389 ;
390 [label="X[71] <= 1.181\ngini = 0.254\nsamples = 127\nvalue = [108, 19]"] ;
316 -> 390 ;
391 [label="X[8] <= -2.16\ngini = 0.183\nsamples = 108\nvalue = [97, 11]"] ;
390 -> 391 ;
392 [label="gini = 0.0\nsamples = 2\nvalue = [0, 2]"] ;
391 -> 392 ;
393 [label="X[82] <= 0.667\ngini = 0.155\nsamples = 106\nvalue = [97, 9]"] ;
391 -> 393 ;
394 [label="X[117] <= 0.44\ngini = 0.049\nsamples = 80\nvalue = [78, 2]"] ;
393 -> 394 ;
395 [label="gini = 0.0\nsamples = 69\nvalue = [69, 0]"] ;
394 -> 395 ;
396 [label="X[141] <= -0.573\ngini = 0.298\nsamples = 11\nvalue = [9, 2]"] ;
394 -> 396 ;
397 [label="X[78] <= 1.613\ngini = 0.444\nsamples = 3\nvalue = [1, 2]"] ;
396 -> 397 ;
398 [label="gini = 0.0\nsamples = 2\nvalue = [0, 2]"] ;
397 -> 398 ;
399 [label="gini = 0.0\nsamples = 1\nvalue = [1, 0]"] ;
397 -> 399 ;
400 [label="gini = 0.0\nsamples = 8\nvalue = [8, 0]"] ;
396 -> 400 ;
401 [label="X[15] <= -0.697\ngini = 0.393\nsamples = 26\nvalue = [19, 7]"] ;
393 -> 401 ;
402 [label="X[73] <= -0.413\ngini = 0.198\nsamples = 18\nvalue = [16, 2]"] ;
401 -> 402 ;
403 [label="gini = 0.0\nsamples = 2\nvalue = [0, 2]"] ;
402 -> 403 ;
404 [label="gini = 0.0\nsamples = 16\nvalue = [16, 0]"] ;
402 -> 404 ;
405 [label="X[24] <= -0.552\ngini = 0.469\nsamples = 8\nvalue = [3, 5]"] ;
401 -> 405 ;
406 [label="gini = 0.0\nsamples = 3\nvalue = [3, 0]"] ;
405 -> 406 ;
407 [label="gini = 0.0\nsamples = 5\nvalue = [0, 5]"] ;
405 -> 407 ;
408 [label="X[93] <= 0.225\ngini = 0.488\nsamples = 19\nvalue = [11, 8]"] ;
390 -> 408 ;
409 [label="X[148] <= -0.264\ngini = 0.397\nsamples = 11\nvalue = [3, 8]"] ;
408 -> 409 ;
410 [label="gini = 0.0\nsamples = 3\nvalue = [3, 0]"] ;
409 -> 410 ;
411 [label="gini = 0.0\nsamples = 8\nvalue = [0, 8]"] ;
409 -> 411 ;
412 [label="gini = 0.0\nsamples = 8\nvalue = [8, 0]"] ;
408 -> 412 ;
413 [label="X[175] <= 1.787\ngini = 0.498\nsamples = 205\nvalue = [109, 96]"] ;
315 -> 413 ;
414 [label="X[197] <= -0.273\ngini = 0.485\nsamples = 181\nvalue = [106, 75]"] ;
413 -> 414 ;
415 [label="X[124] <= -0.796\ngini = 0.385\nsamples = 73\nvalue = [54, 19]"] ;
414 -> 415 ;
416 [label="X[180] <= 0.41\ngini = 0.494\nsamples = 38\nvalue = [21, 17]"] ;
415 -> 416 ;
417 [label="X[85] <= -0.496\ngini = 0.408\nsamples = 28\nvalue = [20, 8]"] ;
416 -> 417 ;
418 [label="X[76] <= 0.602\ngini = 0.32\nsamples = 25\nvalue = [20, 5]"] ;
417 -> 418 ;
419 [label="X[22] <= -1.393\ngini = 0.172\nsamples = 21\nvalue = [19, 2]"] ;
418 -> 419 ;
420 [label="X[76] <= -0.085\ngini = 0.444\nsamples = 3\nvalue = [1, 2]"] ;
419 -> 420 ;
421 [label="gini = 0.0\nsamples = 2\nvalue = [0, 2]"] ;
420 -> 421 ;
422 [label="gini = 0.0\nsamples = 1\nvalue = [1, 0]"] ;
420 -> 422 ;
423 [label="gini = 0.0\nsamples = 18\nvalue = [18, 0]"] ;
419 -> 423 ;
424 [label="X[116] <= -0.613\ngini = 0.375\nsamples = 4\nvalue = [1, 3]"] ;
418 -> 424 ;
425 [label="gini = 0.0\nsamples = 1\nvalue = [1, 0]"] ;
424 -> 425 ;
426 [label="gini = 0.0\nsamples = 3\nvalue = [0, 3]"] ;
424 -> 426 ;
427 [label="gini = 0.0\nsamples = 3\nvalue = [0, 3]"] ;
417 -> 427 ;
428 [label="X[36] <= 0.019\ngini = 0.18\nsamples = 10\nvalue = [1, 9]"] ;
416 -> 428 ;
429 [label="gini = 0.0\nsamples = 9\nvalue = [0, 9]"] ;
428 -> 429 ;
430 [label="gini = 0.0\nsamples = 1\nvalue = [1, 0]"] ;
428 -> 430 ;
431 [label="X[136] <= -1.041\ngini = 0.108\nsamples = 35\nvalue = [33, 2]"] ;
415 -> 431 ;
432 [label="X[142] <= -0.146\ngini = 0.444\nsamples = 3\nvalue = [1, 2]"] ;
431 -> 432 ;
433 [label="gini = 0.0\nsamples = 1\nvalue = [1, 0]"] ;
432 -> 433 ;
434 [label="gini = 0.0\nsamples = 2\nvalue = [0, 2]"] ;
432 -> 434 ;
435 [label="gini = 0.0\nsamples = 32\nvalue = [32, 0]"] ;
431 -> 435 ;
436 [label="X[92] <= 0.437\ngini = 0.499\nsamples = 108\nvalue = [52, 56]"] ;
414 -> 436 ;
437 [label="X[97] <= -0.854\ngini = 0.469\nsamples = 72\nvalue = [27, 45]"] ;
436 -> 437 ;
438 [label="X[66] <= -0.452\ngini = 0.18\nsamples = 10\nvalue = [9, 1]"] ;
437 -> 438 ;
439 [label="gini = 0.0\nsamples = 9\nvalue = [9, 0]"] ;
438 -> 439 ;
440 [label="gini = 0.0\nsamples = 1\nvalue = [0, 1]"] ;
438 -> 440 ;
441 [label="X[93] <= 0.365\ngini = 0.412\nsamples = 62\nvalue = [18, 44]"] ;
437 -> 441 ;
442 [label="X[31] <= -1.406\ngini = 0.305\nsamples = 48\nvalue = [9, 39]"] ;
441 -> 442 ;
443 [label="gini = 0.0\nsamples = 3\nvalue = [3, 0]"] ;
442 -> 443 ;
444 [label="X[74] <= 1.544\ngini = 0.231\nsamples = 45\nvalue = [6, 39]"] ;
442 -> 444 ;
445 [label="X[103] <= -0.933\ngini = 0.169\nsamples = 43\nvalue = [4, 39]"] ;
444 -> 445 ;
446 [label="gini = 0.0\nsamples = 2\nvalue = [2, 0]"] ;
445 -> 446 ;
447 [label="X[3] <= -1.535\ngini = 0.093\nsamples = 41\nvalue = [2, 39]"] ;
445 -> 447 ;
448 [label="X[4] <= -0.636\ngini = 0.444\nsamples = 3\nvalue = [2, 1]"] ;
447 -> 448 ;
449 [label="gini = 0.0\nsamples = 2\nvalue = [2, 0]"] ;
448 -> 449 ;
450 [label="gini = 0.0\nsamples = 1\nvalue = [0, 1]"] ;
448 -> 450 ;
451 [label="gini = 0.0\nsamples = 38\nvalue = [0, 38]"] ;
447 -> 451 ;
452 [label="gini = 0.0\nsamples = 2\nvalue = [2, 0]"] ;
444 -> 452 ;
453 [label="X[59] <= 0.474\ngini = 0.459\nsamples = 14\nvalue = [9, 5]"] ;
441 -> 453 ;
454 [label="X[117] <= 0.959\ngini = 0.408\nsamples = 7\nvalue = [2, 5]"] ;
453 -> 454 ;
455 [label="gini = 0.0\nsamples = 5\nvalue = [0, 5]"] ;
454 -> 455 ;
456 [label="gini = 0.0\nsamples = 2\nvalue = [2, 0]"] ;
454 -> 456 ;
457 [label="gini = 0.0\nsamples = 7\nvalue = [7, 0]"] ;
453 -> 457 ;
458 [label="X[192] <= -0.843\ngini = 0.424\nsamples = 36\nvalue = [25, 11]"] ;
436 -> 458 ;
459 [label="X[49] <= 0.184\ngini = 0.49\nsamples = 14\nvalue = [6, 8]"] ;
458 -> 459 ;
460 [label="gini = 0.0\nsamples = 6\nvalue = [0, 6]"] ;
459 -> 460 ;
461 [label="X[181] <= -0.923\ngini = 0.375\nsamples = 8\nvalue = [6, 2]"] ;
459 -> 461 ;
462 [label="gini = 0.0\nsamples = 2\nvalue = [0, 2]"] ;
461 -> 462 ;
463 [label="gini = 0.0\nsamples = 6\nvalue = [6, 0]"] ;
461 -> 463 ;
464 [label="X[106] <= -1.199\ngini = 0.236\nsamples = 22\nvalue = [19, 3]"] ;
458 -> 464 ;
465 [label="gini = 0.0\nsamples = 2\nvalue = [0, 2]"] ;
464 -> 465 ;
466 [label="X[184] <= -0.774\ngini = 0.095\nsamples = 20\nvalue = [19, 1]"] ;
464 -> 466 ;
467 [label="gini = 0.0\nsamples = 1\nvalue = [0, 1]"] ;
466 -> 467 ;
468 [label="gini = 0.0\nsamples = 19\nvalue = [19, 0]"] ;
466 -> 468 ;
469 [label="X[140] <= 0.199\ngini = 0.219\nsamples = 24\nvalue = [3, 21]"] ;
413 -> 469 ;
470 [label="X[149] <= 1.625\ngini = 0.49\nsamples = 7\nvalue = [3, 4]"] ;
469 -> 470 ;
471 [label="gini = 0.0\nsamples = 3\nvalue = [3, 0]"] ;
470 -> 471 ;
472 [label="gini = 0.0\nsamples = 4\nvalue = [0, 4]"] ;
470 -> 472 ;
473 [label="gini = 0.0\nsamples = 17\nvalue = [0, 17]"] ;
469 -> 473 ;
474 [label="X[175] <= -0.617\ngini = 0.5\nsamples = 879\nvalue = [446, 433]"] ;
314 -> 474 ;
475 [label="X[141] <= -0.746\ngini = 0.443\nsamples = 130\nvalue = [87, 43]"] ;
474 -> 475 ;
476 [label="X[204] <= -0.294\ngini = 0.48\nsamples = 30\nvalue = [12, 18]"] ;
475 -> 476 ;
477 [label="X[108] <= 1.744\ngini = 0.444\nsamples = 18\nvalue = [12, 6]"] ;
476 -> 477 ;
478 [label="X[124] <= -1.124\ngini = 0.142\nsamples = 13\nvalue = [12, 1]"] ;
477 -> 478 ;
479 [label="gini = 0.0\nsamples = 1\nvalue = [0, 1]"] ;
478 -> 479 ;
480 [label="gini = 0.0\nsamples = 12\nvalue = [12, 0]"] ;
478 -> 480 ;
481 [label="gini = 0.0\nsamples = 5\nvalue = [0, 5]"] ;
477 -> 481 ;
482 [label="gini = 0.0\nsamples = 12\nvalue = [0, 12]"] ;
476 -> 482 ;
483 [label="X[117] <= 1.275\ngini = 0.375\nsamples = 100\nvalue = [75, 25]"] ;
475 -> 483 ;
484 [label="X[1] <= -0.04\ngini = 0.335\nsamples = 94\nvalue = [74, 20]"] ;
483 -> 484 ;
485 [label="X[131] <= 0.975\ngini = 0.275\nsamples = 85\nvalue = [71, 14]"] ;
484 -> 485 ;
486 [label="X[200] <= 1.379\ngini = 0.193\nsamples = 74\nvalue = [66, 8]"] ;
485 -> 486 ;
487 [label="X[155] <= 2.811\ngini = 0.153\nsamples = 72\nvalue = [66, 6]"] ;
486 -> 487 ;
488 [label="X[48] <= -1.413\ngini = 0.109\nsamples = 69\nvalue = [65, 4]"] ;
487 -> 488 ;
489 [label="X[45] <= -0.15\ngini = 0.469\nsamples = 8\nvalue = [5, 3]"] ;
488 -> 489 ;
490 [label="gini = 0.0\nsamples = 5\nvalue = [5, 0]"] ;
489 -> 490 ;
491 [label="gini = 0.0\nsamples = 3\nvalue = [0, 3]"] ;
489 -> 491 ;
492 [label="X[109] <= -1.3\ngini = 0.032\nsamples = 61\nvalue = [60, 1]"] ;
488 -> 492 ;
493 [label="gini = 0.0\nsamples = 1\nvalue = [0, 1]"] ;
492 -> 493 ;
494 [label="gini = 0.0\nsamples = 60\nvalue = [60, 0]"] ;
492 -> 494 ;
495 [label="X[159] <= 0.643\ngini = 0.444\nsamples = 3\nvalue = [1, 2]"] ;
487 -> 495 ;
496 [label="gini = 0.0\nsamples = 1\nvalue = [1, 0]"] ;
495 -> 496 ;
497 [label="gini = 0.0\nsamples = 2\nvalue = [0, 2]"] ;
495 -> 497 ;
498 [label="gini = 0.0\nsamples = 2\nvalue = [0, 2]"] ;
486 -> 498 ;
499 [label="X[74] <= 0.303\ngini = 0.496\nsamples = 11\nvalue = [5, 6]"] ;
485 -> 499 ;
500 [label="gini = 0.0\nsamples = 6\nvalue = [0, 6]"] ;
499 -> 500 ;
501 [label="gini = 0.0\nsamples = 5\nvalue = [5, 0]"] ;
499 -> 501 ;
502 [label="X[58] <= -0.596\ngini = 0.444\nsamples = 9\nvalue = [3, 6]"] ;
484 -> 502 ;
503 [label="X[161] <= -0.713\ngini = 0.375\nsamples = 4\nvalue = [3, 1]"] ;
502 -> 503 ;
504 [label="gini = 0.0\nsamples = 1\nvalue = [0, 1]"] ;
503 -> 504 ;
505 [label="gini = 0.0\nsamples = 3\nvalue = [3, 0]"] ;
503 -> 505 ;
506 [label="gini = 0.0\nsamples = 5\nvalue = [0, 5]"] ;
502 -> 506 ;
507 [label="X[162] <= -1.29\ngini = 0.278\nsamples = 6\nvalue = [1, 5]"] ;
483 -> 507 ;
508 [label="gini = 0.0\nsamples = 1\nvalue = [1, 0]"] ;
507 -> 508 ;
509 [label="gini = 0.0\nsamples = 5\nvalue = [0, 5]"] ;
507 -> 509 ;
510 [label="X[206] <= 0.123\ngini = 0.499\nsamples = 749\nvalue = [359, 390]"] ;
474 -> 510 ;
511 [label="X[72] <= -0.079\ngini = 0.497\nsamples = 461\nvalue = [247, 214]"] ;
510 -> 511 ;
512 [label="X[161] <= 0.701\ngini = 0.436\nsamples = 84\nvalue = [27, 57]"] ;
511 -> 512 ;
513 [label="X[187] <= -1.073\ngini = 0.346\nsamples = 63\nvalue = [14, 49]"] ;
512 -> 513 ;
514 [label="X[99] <= 0.247\ngini = 0.32\nsamples = 5\nvalue = [4, 1]"] ;
513 -> 514 ;
515 [label="gini = 0.0\nsamples = 4\nvalue = [4, 0]"] ;
514 -> 515 ;
516 [label="gini = 0.0\nsamples = 1\nvalue = [0, 1]"] ;
514 -> 516 ;
517 [label="X[167] <= 1.084\ngini = 0.285\nsamples = 58\nvalue = [10, 48]"] ;
513 -> 517 ;
518 [label="X[188] <= -1.287\ngini = 0.183\nsamples = 49\nvalue = [5, 44]"] ;
517 -> 518 ;
519 [label="gini = 0.0\nsamples = 2\nvalue = [2, 0]"] ;
518 -> 519 ;
520 [label="X[140] <= -1.467\ngini = 0.12\nsamples = 47\nvalue = [3, 44]"] ;
518 -> 520 ;
521 [label="gini = 0.0\nsamples = 1\nvalue = [1, 0]"] ;
520 -> 521 ;
522 [label="X[140] <= 1.057\ngini = 0.083\nsamples = 46\nvalue = [2, 44]"] ;
520 -> 522 ;
523 [label="X[7] <= -1.433\ngini = 0.043\nsamples = 45\nvalue = [1, 44]"] ;
522 -> 523 ;
524 [label="gini = 0.0\nsamples = 1\nvalue = [1, 0]"] ;
523 -> 524 ;
525 [label="gini = 0.0\nsamples = 44\nvalue = [0, 44]"] ;
523 -> 525 ;
526 [label="gini = 0.0\nsamples = 1\nvalue = [1, 0]"] ;
522 -> 526 ;
527 [label="X[71] <= -1.007\ngini = 0.494\nsamples = 9\nvalue = [5, 4]"] ;
517 -> 527 ;
528 [label="gini = 0.0\nsamples = 4\nvalue = [0, 4]"] ;
527 -> 528 ;
529 [label="gini = 0.0\nsamples = 5\nvalue = [5, 0]"] ;
527 -> 529 ;
530 [label="X[80] <= -0.906\ngini = 0.472\nsamples = 21\nvalue = [13, 8]"] ;
512 -> 530 ;
531 [label="X[182] <= -0.535\ngini = 0.397\nsamples = 11\nvalue = [3, 8]"] ;
530 -> 531 ;
532 [label="gini = 0.0\nsamples = 3\nvalue = [3, 0]"] ;
531 -> 532 ;
533 [label="gini = 0.0\nsamples = 8\nvalue = [0, 8]"] ;
531 -> 533 ;
534 [label="gini = 0.0\nsamples = 10\nvalue = [10, 0]"] ;
530 -> 534 ;
535 [label="X[126] <= -0.287\ngini = 0.486\nsamples = 377\nvalue = [220, 157]"] ;
511 -> 535 ;
536 [label="X[74] <= -0.739\ngini = 0.407\nsamples = 137\nvalue = [98, 39]"] ;
535 -> 536 ;
537 [label="X[142] <= 0.702\ngini = 0.219\nsamples = 8\nvalue = [1, 7]"] ;
536 -> 537 ;
538 [label="gini = 0.0\nsamples = 7\nvalue = [0, 7]"] ;
537 -> 538 ;
539 [label="gini = 0.0\nsamples = 1\nvalue = [1, 0]"] ;
537 -> 539 ;
540 [label="X[120] <= -0.046\ngini = 0.373\nsamples = 129\nvalue = [97, 32]"] ;
536 -> 540 ;
541 [label="X[109] <= 1.356\ngini = 0.216\nsamples = 65\nvalue = [57, 8]"] ;
540 -> 541 ;
542 [label="X[129] <= -0.613\ngini = 0.148\nsamples = 62\nvalue = [57, 5]"] ;
541 -> 542 ;
543 [label="gini = 0.0\nsamples = 2\nvalue = [0, 2]"] ;
542 -> 543 ;
544 [label="X[34] <= -1.063\ngini = 0.095\nsamples = 60\nvalue = [57, 3]"] ;
542 -> 544 ;
545 [label="gini = 0.0\nsamples = 1\nvalue = [0, 1]"] ;
544 -> 545 ;
546 [label="X[66] <= -0.992\ngini = 0.065\nsamples = 59\nvalue = [57, 2]"] ;
544 -> 546 ;
547 [label="gini = 0.0\nsamples = 1\nvalue = [0, 1]"] ;
546 -> 547 ;
548 [label="X[87] <= -0.625\ngini = 0.034\nsamples = 58\nvalue = [57, 1]"] ;
546 -> 548 ;
549 [label="X[166] <= -0.856\ngini = 0.5\nsamples = 2\nvalue = [1, 1]"] ;
548 -> 549 ;
550 [label="gini = 0.0\nsamples = 1\nvalue = [0, 1]"] ;
549 -> 550 ;
551 [label="gini = 0.0\nsamples = 1\nvalue = [1, 0]"] ;
549 -> 551 ;
552 [label="gini = 0.0\nsamples = 56\nvalue = [56, 0]"] ;
548 -> 552 ;
553 [label="gini = 0.0\nsamples = 3\nvalue = [0, 3]"] ;
541 -> 553 ;
554 [label="X[130] <= 0.303\ngini = 0.469\nsamples = 64\nvalue = [40, 24]"] ;
540 -> 554 ;
555 [label="X[186] <= 0.233\ngini = 0.5\nsamples = 44\nvalue = [22, 22]"] ;
554 -> 555 ;
556 [label="X[122] <= 0.865\ngini = 0.475\nsamples = 36\nvalue = [22, 14]"] ;
555 -> 556 ;
557 [label="X[137] <= -0.096\ngini = 0.499\nsamples = 27\nvalue = [13, 14]"] ;
556 -> 557 ;
558 [label="X[91] <= 1.036\ngini = 0.36\nsamples = 17\nvalue = [4, 13]"] ;
557 -> 558 ;
559 [label="gini = 0.0\nsamples = 12\nvalue = [0, 12]"] ;
558 -> 559 ;
560 [label="X[120] <= 0.37\ngini = 0.32\nsamples = 5\nvalue = [4, 1]"] ;
558 -> 560 ;
561 [label="gini = 0.0\nsamples = 4\nvalue = [4, 0]"] ;
560 -> 561 ;
562 [label="gini = 0.0\nsamples = 1\nvalue = [0, 1]"] ;
560 -> 562 ;
563 [label="X[141] <= 0.949\ngini = 0.18\nsamples = 10\nvalue = [9, 1]"] ;
557 -> 563 ;
564 [label="gini = 0.0\nsamples = 9\nvalue = [9, 0]"] ;
563 -> 564 ;
565 [label="gini = 0.0\nsamples = 1\nvalue = [0, 1]"] ;
563 -> 565 ;
566 [label="gini = 0.0\nsamples = 9\nvalue = [9, 0]"] ;
556 -> 566 ;
567 [label="gini = 0.0\nsamples = 8\nvalue = [0, 8]"] ;
555 -> 567 ;
568 [label="X[125] <= -1.087\ngini = 0.18\nsamples = 20\nvalue = [18, 2]"] ;
554 -> 568 ;
569 [label="gini = 0.0\nsamples = 1\nvalue = [0, 1]"] ;
568 -> 569 ;
570 [label="X[125] <= 0.291\ngini = 0.1\nsamples = 19\nvalue = [18, 1]"] ;
568 -> 570 ;
571 [label="gini = 0.0\nsamples = 18\nvalue = [18, 0]"] ;
570 -> 571 ;
572 [label="gini = 0.0\nsamples = 1\nvalue = [0, 1]"] ;
570 -> 572 ;
573 [label="X[10] <= -0.948\ngini = 0.5\nsamples = 240\nvalue = [122, 118]"] ;
535 -> 573 ;
574 [label="X[201] <= -0.015\ngini = 0.278\nsamples = 24\nvalue = [20, 4]"] ;
573 -> 574 ;
575 [label="gini = 0.0\nsamples = 19\nvalue = [19, 0]"] ;
574 -> 575 ;
576 [label="X[179] <= -1.524\ngini = 0.32\nsamples = 5\nvalue = [1, 4]"] ;
574 -> 576 ;
577 [label="gini = 0.0\nsamples = 1\nvalue = [1, 0]"] ;
576 -> 577 ;
578 [label="gini = 0.0\nsamples = 4\nvalue = [0, 4]"] ;
576 -> 578 ;
579 [label="X[28] <= -0.948\ngini = 0.498\nsamples = 216\nvalue = [102, 114]"] ;
573 -> 579 ;
580 [label="X[206] <= -1.251\ngini = 0.298\nsamples = 22\nvalue = [18, 4]"] ;
579 -> 580 ;
581 [label="gini = 0.0\nsamples = 3\nvalue = [0, 3]"] ;
580 -> 581 ;
582 [label="X[199] <= 0.111\ngini = 0.1\nsamples = 19\nvalue = [18, 1]"] ;
580 -> 582 ;
583 [label="gini = 0.0\nsamples = 1\nvalue = [0, 1]"] ;
582 -> 583 ;
584 [label="gini = 0.0\nsamples = 18\nvalue = [18, 0]"] ;
582 -> 584 ;
585 [label="X[67] <= -0.443\ngini = 0.491\nsamples = 194\nvalue = [84, 110]"] ;
579 -> 585 ;
586 [label="X[34] <= 1.73\ngini = 0.351\nsamples = 22\nvalue = [17, 5]"] ;
585 -> 586 ;
587 [label="gini = 0.0\nsamples = 17\nvalue = [17, 0]"] ;
586 -> 587 ;
588 [label="gini = 0.0\nsamples = 5\nvalue = [0, 5]"] ;
586 -> 588 ;
589 [label="X[131] <= 0.15\ngini = 0.476\nsamples = 172\nvalue = [67, 105]"] ;
585 -> 589 ;
590 [label="X[143] <= 1.735\ngini = 0.402\nsamples = 104\nvalue = [29, 75]"] ;
589 -> 590 ;
591 [label="X[157] <= 1.641\ngini = 0.37\nsamples = 98\nvalue = [24, 74]"] ;
590 -> 591 ;
592 [label="X[157] <= 0.052\ngini = 0.323\nsamples = 89\nvalue = [18, 71]"] ;
591 -> 592 ;
593 [label="X[125] <= 0.276\ngini = 0.48\nsamples = 30\nvalue = [12, 18]"] ;
592 -> 593 ;
594 [label="X[120] <= -0.464\ngini = 0.403\nsamples = 25\nvalue = [7, 18]"] ;
593 -> 594 ;
595 [label="X[29] <= 1.317\ngini = 0.278\nsamples = 6\nvalue = [5, 1]"] ;
594 -> 595 ;
596 [label="gini = 0.0\nsamples = 5\nvalue = [5, 0]"] ;
595 -> 596 ;
597 [label="gini = 0.0\nsamples = 1\nvalue = [0, 1]"] ;
595 -> 597 ;
598 [label="X[190] <= -1.569\ngini = 0.188\nsamples = 19\nvalue = [2, 17]"] ;
594 -> 598 ;
599 [label="gini = 0.0\nsamples = 1\nvalue = [1, 0]"] ;
598 -> 599 ;
600 [label="X[138] <= 0.628\ngini = 0.105\nsamples = 18\nvalue = [1, 17]"] ;
598 -> 600 ;
601 [label="gini = 0.0\nsamples = 17\nvalue = [0, 17]"] ;
600 -> 601 ;
602 [label="gini = 0.0\nsamples = 1\nvalue = [1, 0]"] ;
600 -> 602 ;
603 [label="gini = 0.0\nsamples = 5\nvalue = [5, 0]"] ;
593 -> 603 ;
604 [label="X[154] <= 1.102\ngini = 0.183\nsamples = 59\nvalue = [6, 53]"] ;
592 -> 604 ;
605 [label="X[18] <= 1.646\ngini = 0.077\nsamples = 50\nvalue = [2, 48]"] ;
604 -> 605 ;
606 [label="X[122] <= -0.984\ngini = 0.04\nsamples = 49\nvalue = [1, 48]"] ;
605 -> 606 ;
607 [label="gini = 0.0\nsamples = 1\nvalue = [1, 0]"] ;
606 -> 607 ;
608 [label="gini = 0.0\nsamples = 48\nvalue = [0, 48]"] ;
606 -> 608 ;
609 [label="gini = 0.0\nsamples = 1\nvalue = [1, 0]"] ;
605 -> 609 ;
610 [label="X[138] <= -0.162\ngini = 0.494\nsamples = 9\nvalue = [4, 5]"] ;
604 -> 610 ;
611 [label="gini = 0.0\nsamples = 4\nvalue = [0, 4]"] ;
610 -> 611 ;
612 [label="X[109] <= -0.889\ngini = 0.32\nsamples = 5\nvalue = [4, 1]"] ;
610 -> 612 ;
613 [label="gini = 0.0\nsamples = 1\nvalue = [0, 1]"] ;
612 -> 613 ;
614 [label="gini = 0.0\nsamples = 4\nvalue = [4, 0]"] ;
612 -> 614 ;
615 [label="X[15] <= -0.007\ngini = 0.444\nsamples = 9\nvalue = [6, 3]"] ;
591 -> 615 ;
616 [label="gini = 0.0\nsamples = 6\nvalue = [6, 0]"] ;
615 -> 616 ;
617 [label="gini = 0.0\nsamples = 3\nvalue = [0, 3]"] ;
615 -> 617 ;
618 [label="X[88] <= 1.023\ngini = 0.278\nsamples = 6\nvalue = [5, 1]"] ;
590 -> 618 ;
619 [label="gini = 0.0\nsamples = 5\nvalue = [5, 0]"] ;
618 -> 619 ;
620 [label="gini = 0.0\nsamples = 1\nvalue = [0, 1]"] ;
618 -> 620 ;
621 [label="X[114] <= -0.037\ngini = 0.493\nsamples = 68\nvalue = [38, 30]"] ;
589 -> 621 ;
622 [label="X[112] <= 0.684\ngini = 0.408\nsamples = 42\nvalue = [30, 12]"] ;
621 -> 622 ;
623 [label="X[182] <= -1.18\ngini = 0.083\nsamples = 23\nvalue = [22, 1]"] ;
622 -> 623 ;
624 [label="gini = 0.0\nsamples = 1\nvalue = [0, 1]"] ;
623 -> 624 ;
625 [label="gini = 0.0\nsamples = 22\nvalue = [22, 0]"] ;
623 -> 625 ;
626 [label="X[200] <= 0.106\ngini = 0.488\nsamples = 19\nvalue = [8, 11]"] ;
622 -> 626 ;
627 [label="X[143] <= 0.207\ngini = 0.375\nsamples = 8\nvalue = [6, 2]"] ;
626 -> 627 ;
628 [label="gini = 0.0\nsamples = 2\nvalue = [0, 2]"] ;
627 -> 628 ;
629 [label="gini = 0.0\nsamples = 6\nvalue = [6, 0]"] ;
627 -> 629 ;
630 [label="X[200] <= 1.108\ngini = 0.298\nsamples = 11\nvalue = [2, 9]"] ;
626 -> 630 ;
631 [label="gini = 0.0\nsamples = 9\nvalue = [0, 9]"] ;
630 -> 631 ;
632 [label="gini = 0.0\nsamples = 2\nvalue = [2, 0]"] ;
630 -> 632 ;
633 [label="X[69] <= 1.196\ngini = 0.426\nsamples = 26\nvalue = [8, 18]"] ;
621 -> 633 ;
634 [label="X[75] <= -0.215\ngini = 0.245\nsamples = 21\nvalue = [3, 18]"] ;
633 -> 634 ;
635 [label="gini = 0.0\nsamples = 17\nvalue = [0, 17]"] ;
634 -> 635 ;
636 [label="X[128] <= 1.767\ngini = 0.375\nsamples = 4\nvalue = [3, 1]"] ;
634 -> 636 ;
637 [label="gini = 0.0\nsamples = 3\nvalue = [3, 0]"] ;
636 -> 637 ;
638 [label="gini = 0.0\nsamples = 1\nvalue = [0, 1]"] ;
636 -> 638 ;
639 [label="gini = 0.0\nsamples = 5\nvalue = [5, 0]"] ;
633 -> 639 ;
640 [label="X[98] <= 0.656\ngini = 0.475\nsamples = 288\nvalue = [112, 176]"] ;
510 -> 640 ;
641 [label="X[6] <= -0.673\ngini = 0.447\nsamples = 228\nvalue = [77, 151]"] ;
640 -> 641 ;
642 [label="gini = 0.0\nsamples = 17\nvalue = [0, 17]"] ;
641 -> 642 ;
643 [label="X[45] <= 0.09\ngini = 0.464\nsamples = 211\nvalue = [77, 134]"] ;
641 -> 643 ;
644 [label="X[195] <= 1.254\ngini = 0.38\nsamples = 106\nvalue = [27, 79]"] ;
643 -> 644 ;
645 [label="X[111] <= -0.55\ngini = 0.315\nsamples = 92\nvalue = [18, 74]"] ;
644 -> 645 ;
646 [label="X[71] <= -0.119\ngini = 0.463\nsamples = 33\nvalue = [12, 21]"] ;
645 -> 646 ;
647 [label="gini = 0.0\nsamples = 5\nvalue = [5, 0]"] ;
646 -> 647 ;
648 [label="X[130] <= -0.712\ngini = 0.375\nsamples = 28\nvalue = [7, 21]"] ;
646 -> 648 ;
649 [label="gini = 0.0\nsamples = 3\nvalue = [3, 0]"] ;
648 -> 649 ;
650 [label="X[21] <= -0.763\ngini = 0.269\nsamples = 25\nvalue = [4, 21]"] ;
648 -> 650 ;
651 [label="gini = 0.0\nsamples = 2\nvalue = [2, 0]"] ;
650 -> 651 ;
652 [label="X[38] <= -1.213\ngini = 0.159\nsamples = 23\nvalue = [2, 21]"] ;
650 -> 652 ;
653 [label="gini = 0.0\nsamples = 2\nvalue = [2, 0]"] ;
652 -> 653 ;
654 [label="gini = 0.0\nsamples = 21\nvalue = [0, 21]"] ;
652 -> 654 ;
655 [label="X[42] <= 1.719\ngini = 0.183\nsamples = 59\nvalue = [6, 53]"] ;
645 -> 655 ;
656 [label="X[127] <= -1.007\ngini = 0.131\nsamples = 57\nvalue = [4, 53]"] ;
655 -> 656 ;
657 [label="X[167] <= -0.296\ngini = 0.444\nsamples = 3\nvalue = [2, 1]"] ;
656 -> 657 ;
658 [label="gini = 0.0\nsamples = 2\nvalue = [2, 0]"] ;
657 -> 658 ;
659 [label="gini = 0.0\nsamples = 1\nvalue = [0, 1]"] ;
657 -> 659 ;
660 [label="X[34] <= -1.356\ngini = 0.071\nsamples = 54\nvalue = [2, 52]"] ;
656 -> 660 ;
661 [label="gini = 0.0\nsamples = 1\nvalue = [1, 0]"] ;
660 -> 661 ;
662 [label="X[186] <= 0.463\ngini = 0.037\nsamples = 53\nvalue = [1, 52]"] ;
660 -> 662 ;
663 [label="gini = 0.0\nsamples = 51\nvalue = [0, 51]"] ;
662 -> 663 ;
664 [label="X[185] <= 1.16\ngini = 0.5\nsamples = 2\nvalue = [1, 1]"] ;
662 -> 664 ;
665 [label="gini = 0.0\nsamples = 1\nvalue = [1, 0]"] ;
664 -> 665 ;
666 [label="gini = 0.0\nsamples = 1\nvalue = [0, 1]"] ;
664 -> 666 ;
667 [label="gini = 0.0\nsamples = 2\nvalue = [2, 0]"] ;
655 -> 667 ;
668 [label="X[124] <= -0.186\ngini = 0.459\nsamples = 14\nvalue = [9, 5]"] ;
644 -> 668 ;
669 [label="gini = 0.0\nsamples = 8\nvalue = [8, 0]"] ;
668 -> 669 ;
670 [label="X[71] <= 0.055\ngini = 0.278\nsamples = 6\nvalue = [1, 5]"] ;
668 -> 670 ;
671 [label="gini = 0.0\nsamples = 1\nvalue = [1, 0]"] ;
670 -> 671 ;
672 [label="gini = 0.0\nsamples = 5\nvalue = [0, 5]"] ;
670 -> 672 ;
673 [label="X[43] <= -1.255\ngini = 0.499\nsamples = 105\nvalue = [50, 55]"] ;
643 -> 673 ;
674 [label="gini = 0.0\nsamples = 9\nvalue = [0, 9]"] ;
673 -> 674 ;
675 [label="X[28] <= 0.488\ngini = 0.499\nsamples = 96\nvalue = [50, 46]"] ;
673 -> 675 ;
676 [label="X[121] <= -1.077\ngini = 0.485\nsamples = 82\nvalue = [48, 34]"] ;
675 -> 676 ;
677 [label="gini = 0.0\nsamples = 7\nvalue = [0, 7]"] ;
676 -> 677 ;
678 [label="X[184] <= 0.558\ngini = 0.461\nsamples = 75\nvalue = [48, 27]"] ;
676 -> 678 ;
679 [label="X[80] <= -0.329\ngini = 0.383\nsamples = 58\nvalue = [43, 15]"] ;
678 -> 679 ;
680 [label="X[134] <= 1.331\ngini = 0.121\nsamples = 31\nvalue = [29, 2]"] ;
679 -> 680 ;
681 [label="gini = 0.0\nsamples = 28\nvalue = [28, 0]"] ;
680 -> 681 ;
682 [label="X[136] <= 1.358\ngini = 0.444\nsamples = 3\nvalue = [1, 2]"] ;
680 -> 682 ;
683 [label="gini = 0.0\nsamples = 2\nvalue = [0, 2]"] ;
682 -> 683 ;
684 [label="gini = 0.0\nsamples = 1\nvalue = [1, 0]"] ;
682 -> 684 ;
685 [label="X[136] <= -0.304\ngini = 0.499\nsamples = 27\nvalue = [14, 13]"] ;
679 -> 685 ;
686 [label="X[125] <= 0.369\ngini = 0.26\nsamples = 13\nvalue = [11, 2]"] ;
685 -> 686 ;
687 [label="gini = 0.0\nsamples = 11\nvalue = [11, 0]"] ;
686 -> 687 ;
688 [label="gini = 0.0\nsamples = 2\nvalue = [0, 2]"] ;
686 -> 688 ;
689 [label="X[184] <= 0.419\ngini = 0.337\nsamples = 14\nvalue = [3, 11]"] ;
685 -> 689 ;
690 [label="X[206] <= 2.371\ngini = 0.153\nsamples = 12\nvalue = [1, 11]"] ;
689 -> 690 ;
691 [label="gini = 0.0\nsamples = 11\nvalue = [0, 11]"] ;
690 -> 691 ;
692 [label="gini = 0.0\nsamples = 1\nvalue = [1, 0]"] ;
690 -> 692 ;
693 [label="gini = 0.0\nsamples = 2\nvalue = [2, 0]"] ;
689 -> 693 ;
694 [label="X[153] <= -0.104\ngini = 0.415\nsamples = 17\nvalue = [5, 12]"] ;
678 -> 694 ;
695 [label="X[16] <= -0.731\ngini = 0.245\nsamples = 14\nvalue = [2, 12]"] ;
694 -> 695 ;
696 [label="gini = 0.0\nsamples = 2\nvalue = [2, 0]"] ;
695 -> 696 ;
697 [label="gini = 0.0\nsamples = 12\nvalue = [0, 12]"] ;
695 -> 697 ;
698 [label="gini = 0.0\nsamples = 3\nvalue = [3, 0]"] ;
694 -> 698 ;
699 [label="X[52] <= 0.474\ngini = 0.245\nsamples = 14\nvalue = [2, 12]"] ;
675 -> 699 ;
700 [label="gini = 0.0\nsamples = 12\nvalue = [0, 12]"] ;
699 -> 700 ;
701 [label="gini = 0.0\nsamples = 2\nvalue = [2, 0]"] ;
699 -> 701 ;
702 [label="X[28] <= -0.487\ngini = 0.486\nsamples = 60\nvalue = [35, 25]"] ;
640 -> 702 ;
703 [label="X[125] <= -0.168\ngini = 0.375\nsamples = 16\nvalue = [4, 12]"] ;
702 -> 703 ;
704 [label="X[98] <= 0.772\ngini = 0.49\nsamples = 7\nvalue = [4, 3]"] ;
703 -> 704 ;
705 [label="gini = 0.0\nsamples = 3\nvalue = [0, 3]"] ;
704 -> 705 ;
706 [label="gini = 0.0\nsamples = 4\nvalue = [4, 0]"] ;
704 -> 706 ;
707 [label="gini = 0.0\nsamples = 9\nvalue = [0, 9]"] ;
703 -> 707 ;
708 [label="X[59] <= 0.417\ngini = 0.416\nsamples = 44\nvalue = [31, 13]"] ;
702 -> 708 ;
709 [label="X[17] <= 0.285\ngini = 0.496\nsamples = 22\nvalue = [10, 12]"] ;
708 -> 709 ;
710 [label="X[194] <= 0.701\ngini = 0.18\nsamples = 10\nvalue = [9, 1]"] ;
709 -> 710 ;
711 [label="gini = 0.0\nsamples = 9\nvalue = [9, 0]"] ;
710 -> 711 ;
712 [label="gini = 0.0\nsamples = 1\nvalue = [0, 1]"] ;
710 -> 712 ;
713 [label="X[160] <= -0.465\ngini = 0.153\nsamples = 12\nvalue = [1, 11]"] ;
709 -> 713 ;
714 [label="gini = 0.0\nsamples = 1\nvalue = [1, 0]"] ;
713 -> 714 ;
715 [label="gini = 0.0\nsamples = 11\nvalue = [0, 11]"] ;
713 -> 715 ;
716 [label="X[87] <= -0.387\ngini = 0.087\nsamples = 22\nvalue = [21, 1]"] ;
708 -> 716 ;
717 [label="gini = 0.0\nsamples = 1\nvalue = [0, 1]"] ;
716 -> 717 ;
718 [label="gini = 0.0\nsamples = 21\nvalue = [21, 0]"] ;
716 -> 718 ;
719 [label="X[36] <= -0.301\ngini = 0.448\nsamples = 634\nvalue = [419, 215]"] ;
89 -> 719 ;
720 [label="X[194] <= 0.379\ngini = 0.414\nsamples = 454\nvalue = [321, 133]"] ;
719 -> 720 ;
721 [label="X[11] <= -0.125\ngini = 0.37\nsamples = 339\nvalue = [256, 83]"] ;
720 -> 721 ;
722 [label="X[4] <= -3.405\ngini = 0.235\nsamples = 140\nvalue = [121, 19]"] ;
721 -> 722 ;
723 [label="gini = 0.0\nsamples = 3\nvalue = [0, 3]"] ;
722 -> 723 ;
724 [label="X[99] <= -1.794\ngini = 0.206\nsamples = 137\nvalue = [121, 16]"] ;
722 -> 724 ;
725 [label="gini = 0.0\nsamples = 3\nvalue = [0, 3]"] ;
724 -> 725 ;
726 [label="X[111] <= -0.721\ngini = 0.175\nsamples = 134\nvalue = [121, 13]"] ;
724 -> 726 ;
727 [label="X[111] <= -0.785\ngini = 0.34\nsamples = 46\nvalue = [36, 10]"] ;
726 -> 727 ;
728 [label="X[103] <= 0.942\ngini = 0.188\nsamples = 38\nvalue = [34, 4]"] ;
727 -> 728 ;
729 [label="gini = 0.0\nsamples = 27\nvalue = [27, 0]"] ;
728 -> 729 ;
730 [label="X[3] <= -1.1\ngini = 0.463\nsamples = 11\nvalue = [7, 4]"] ;
728 -> 730 ;
731 [label="X[132] <= 2.22\ngini = 0.32\nsamples = 5\nvalue = [1, 4]"] ;
730 -> 731 ;
732 [label="gini = 0.0\nsamples = 4\nvalue = [0, 4]"] ;
731 -> 732 ;
733 [label="gini = 0.0\nsamples = 1\nvalue = [1, 0]"] ;
731 -> 733 ;
734 [label="gini = 0.0\nsamples = 6\nvalue = [6, 0]"] ;
730 -> 734 ;
735 [label="X[15] <= -0.664\ngini = 0.375\nsamples = 8\nvalue = [2, 6]"] ;
727 -> 735 ;
736 [label="gini = 0.0\nsamples = 6\nvalue = [0, 6]"] ;
735 -> 736 ;
737 [label="gini = 0.0\nsamples = 2\nvalue = [2, 0]"] ;
735 -> 737 ;
738 [label="X[144] <= -1.099\ngini = 0.066\nsamples = 88\nvalue = [85, 3]"] ;
726 -> 738 ;
739 [label="X[171] <= -0.863\ngini = 0.444\nsamples = 3\nvalue = [1, 2]"] ;
738 -> 739 ;
740 [label="gini = 0.0\nsamples = 2\nvalue = [0, 2]"] ;
739 -> 740 ;
741 [label="gini = 0.0\nsamples = 1\nvalue = [1, 0]"] ;
739 -> 741 ;
742 [label="X[18] <= 1.224\ngini = 0.023\nsamples = 85\nvalue = [84, 1]"] ;
738 -> 742 ;
743 [label="gini = 0.0\nsamples = 81\nvalue = [81, 0]"] ;
742 -> 743 ;
744 [label="X[29] <= -0.942\ngini = 0.375\nsamples = 4\nvalue = [3, 1]"] ;
742 -> 744 ;
745 [label="gini = 0.0\nsamples = 1\nvalue = [0, 1]"] ;
744 -> 745 ;
746 [label="gini = 0.0\nsamples = 3\nvalue = [3, 0]"] ;
744 -> 746 ;
747 [label="X[10] <= -1.236\ngini = 0.436\nsamples = 199\nvalue = [135, 64]"] ;
721 -> 747 ;
748 [label="gini = 0.0\nsamples = 5\nvalue = [0, 5]"] ;
747 -> 748 ;
749 [label="X[159] <= -1.589\ngini = 0.423\nsamples = 194\nvalue = [135, 59]"] ;
747 -> 749 ;
750 [label="gini = 0.0\nsamples = 5\nvalue = [0, 5]"] ;
749 -> 750 ;
751 [label="X[83] <= 1.832\ngini = 0.408\nsamples = 189\nvalue = [135, 54]"] ;
749 -> 751 ;
752 [label="X[75] <= 1.515\ngini = 0.452\nsamples = 142\nvalue = [93, 49]"] ;
751 -> 752 ;
753 [label="X[86] <= 0.856\ngini = 0.385\nsamples = 123\nvalue = [91, 32]"] ;
752 -> 753 ;
754 [label="X[66] <= -0.329\ngini = 0.301\nsamples = 92\nvalue = [75, 17]"] ;
753 -> 754 ;
755 [label="X[95] <= 1.647\ngini = 0.265\nsamples = 89\nvalue = [75, 14]"] ;
754 -> 755 ;
756 [label="X[86] <= 0.336\ngini = 0.238\nsamples = 87\nvalue = [75, 12]"] ;
755 -> 756 ;
757 [label="X[86] <= 0.274\ngini = 0.341\nsamples = 55\nvalue = [43, 12]"] ;
756 -> 757 ;
758 [label="X[173] <= 1.563\ngini = 0.265\nsamples = 51\nvalue = [43, 8]"] ;
757 -> 758 ;
759 [label="X[147] <= -0.976\ngini = 0.219\nsamples = 48\nvalue = [42, 6]"] ;
758 -> 759 ;
760 [label="X[188] <= -0.419\ngini = 0.48\nsamples = 10\nvalue = [6, 4]"] ;
759 -> 760 ;
761 [label="gini = 0.0\nsamples = 5\nvalue = [5, 0]"] ;
760 -> 761 ;
762 [label="X[161] <= -1.247\ngini = 0.32\nsamples = 5\nvalue = [1, 4]"] ;
760 -> 762 ;
763 [label="gini = 0.0\nsamples = 1\nvalue = [1, 0]"] ;
762 -> 763 ;
764 [label="gini = 0.0\nsamples = 4\nvalue = [0, 4]"] ;
762 -> 764 ;
765 [label="X[144] <= 2.392\ngini = 0.1\nsamples = 38\nvalue = [36, 2]"] ;
759 -> 765 ;
766 [label="X[58] <= 0.558\ngini = 0.053\nsamples = 37\nvalue = [36, 1]"] ;
765 -> 766 ;
767 [label="gini = 0.0\nsamples = 36\nvalue = [36, 0]"] ;
766 -> 767 ;
768 [label="gini = 0.0\nsamples = 1\nvalue = [0, 1]"] ;
766 -> 768 ;
769 [label="gini = 0.0\nsamples = 1\nvalue = [0, 1]"] ;
765 -> 769 ;
770 [label="X[91] <= 1.113\ngini = 0.444\nsamples = 3\nvalue = [1, 2]"] ;
758 -> 770 ;
771 [label="gini = 0.0\nsamples = 1\nvalue = [1, 0]"] ;
770 -> 771 ;
772 [label="gini = 0.0\nsamples = 2\nvalue = [0, 2]"] ;
770 -> 772 ;
773 [label="gini = 0.0\nsamples = 4\nvalue = [0, 4]"] ;
757 -> 773 ;
774 [label="gini = 0.0\nsamples = 32\nvalue = [32, 0]"] ;
756 -> 774 ;
775 [label="gini = 0.0\nsamples = 2\nvalue = [0, 2]"] ;
755 -> 775 ;
776 [label="gini = 0.0\nsamples = 3\nvalue = [0, 3]"] ;
754 -> 776 ;
777 [label="X[41] <= 0.054\ngini = 0.499\nsamples = 31\nvalue = [16, 15]"] ;
753 -> 777 ;
778 [label="X[15] <= -0.921\ngini = 0.332\nsamples = 19\nvalue = [15, 4]"] ;
777 -> 778 ;
779 [label="X[76] <= 1.621\ngini = 0.375\nsamples = 4\nvalue = [1, 3]"] ;
778 -> 779 ;
780 [label="gini = 0.0\nsamples = 3\nvalue = [0, 3]"] ;
779 -> 780 ;
781 [label="gini = 0.0\nsamples = 1\nvalue = [1, 0]"] ;
779 -> 781 ;
782 [label="X[11] <= 1.183\ngini = 0.124\nsamples = 15\nvalue = [14, 1]"] ;
778 -> 782 ;
783 [label="gini = 0.0\nsamples = 14\nvalue = [14, 0]"] ;
782 -> 783 ;
784 [label="gini = 0.0\nsamples = 1\nvalue = [0, 1]"] ;
782 -> 784 ;
785 [label="X[58] <= 1.06\ngini = 0.153\nsamples = 12\nvalue = [1, 11]"] ;
777 -> 785 ;
786 [label="gini = 0.0\nsamples = 11\nvalue = [0, 11]"] ;
785 -> 786 ;
787 [label="gini = 0.0\nsamples = 1\nvalue = [1, 0]"] ;
785 -> 787 ;
788 [label="X[21] <= -0.445\ngini = 0.188\nsamples = 19\nvalue = [2, 17]"] ;
752 -> 788 ;
789 [label="gini = 0.0\nsamples = 17\nvalue = [0, 17]"] ;
788 -> 789 ;
790 [label="gini = 0.0\nsamples = 2\nvalue = [2, 0]"] ;
788 -> 790 ;
791 [label="X[22] <= 0.99\ngini = 0.19\nsamples = 47\nvalue = [42, 5]"] ;
751 -> 791 ;
792 [label="X[116] <= 0.853\ngini = 0.049\nsamples = 40\nvalue = [39, 1]"] ;
791 -> 792 ;
793 [label="gini = 0.0\nsamples = 39\nvalue = [39, 0]"] ;
792 -> 793 ;
794 [label="gini = 0.0\nsamples = 1\nvalue = [0, 1]"] ;
792 -> 794 ;
795 [label="X[98] <= 1.189\ngini = 0.49\nsamples = 7\nvalue = [3, 4]"] ;
791 -> 795 ;
796 [label="gini = 0.0\nsamples = 3\nvalue = [3, 0]"] ;
795 -> 796 ;
797 [label="gini = 0.0\nsamples = 4\nvalue = [0, 4]"] ;
795 -> 797 ;
798 [label="X[31] <= -0.651\ngini = 0.491\nsamples = 115\nvalue = [65, 50]"] ;
720 -> 798 ;
799 [label="X[167] <= 0.521\ngini = 0.455\nsamples = 40\nvalue = [14, 26]"] ;
798 -> 799 ;
800 [label="X[126] <= -2.07\ngini = 0.293\nsamples = 28\nvalue = [5, 23]"] ;
799 -> 800 ;
801 [label="X[66] <= -2.914\ngini = 0.444\nsamples = 6\nvalue = [4, 2]"] ;
800 -> 801 ;
802 [label="gini = 0.0\nsamples = 2\nvalue = [0, 2]"] ;
801 -> 802 ;
803 [label="gini = 0.0\nsamples = 4\nvalue = [4, 0]"] ;
801 -> 803 ;
804 [label="X[98] <= 1.697\ngini = 0.087\nsamples = 22\nvalue = [1, 21]"] ;
800 -> 804 ;
805 [label="gini = 0.0\nsamples = 21\nvalue = [0, 21]"] ;
804 -> 805 ;
806 [label="gini = 0.0\nsamples = 1\nvalue = [1, 0]"] ;
804 -> 806 ;
807 [label="X[167] <= 3.579\ngini = 0.375\nsamples = 12\nvalue = [9, 3]"] ;
799 -> 807 ;
808 [label="gini = 0.0\nsamples = 9\nvalue = [9, 0]"] ;
807 -> 808 ;
809 [label="gini = 0.0\nsamples = 3\nvalue = [0, 3]"] ;
807 -> 809 ;
810 [label="X[123] <= 0.825\ngini = 0.435\nsamples = 75\nvalue = [51, 24]"] ;
798 -> 810 ;
811 [label="X[141] <= 0.893\ngini = 0.289\nsamples = 40\nvalue = [33, 7]"] ;
810 -> 811 ;
812 [label="X[184] <= 0.675\ngini = 0.229\nsamples = 38\nvalue = [33, 5]"] ;
811 -> 812 ;
813 [label="X[201] <= 1.471\ngini = 0.117\nsamples = 32\nvalue = [30, 2]"] ;
812 -> 813 ;
814 [label="X[133] <= -0.879\ngini = 0.062\nsamples = 31\nvalue = [30, 1]"] ;
813 -> 814 ;
815 [label="gini = 0.0\nsamples = 1\nvalue = [0, 1]"] ;
814 -> 815 ;
816 [label="gini = 0.0\nsamples = 30\nvalue = [30, 0]"] ;
814 -> 816 ;
817 [label="gini = 0.0\nsamples = 1\nvalue = [0, 1]"] ;
813 -> 817 ;
818 [label="X[191] <= -0.425\ngini = 0.5\nsamples = 6\nvalue = [3, 3]"] ;
812 -> 818 ;
819 [label="gini = 0.0\nsamples = 3\nvalue = [0, 3]"] ;
818 -> 819 ;
820 [label="gini = 0.0\nsamples = 3\nvalue = [3, 0]"] ;
818 -> 820 ;
821 [label="gini = 0.0\nsamples = 2\nvalue = [0, 2]"] ;
811 -> 821 ;
822 [label="X[67] <= 0.342\ngini = 0.5\nsamples = 35\nvalue = [18, 17]"] ;
810 -> 822 ;
823 [label="X[71] <= 1.485\ngini = 0.332\nsamples = 19\nvalue = [4, 15]"] ;
822 -> 823 ;
824 [label="X[62] <= 0.341\ngini = 0.124\nsamples = 15\nvalue = [1, 14]"] ;
823 -> 824 ;
825 [label="gini = 0.0\nsamples = 14\nvalue = [0, 14]"] ;
824 -> 825 ;
826 [label="gini = 0.0\nsamples = 1\nvalue = [1, 0]"] ;
824 -> 826 ;
827 [label="X[34] <= -0.416\ngini = 0.375\nsamples = 4\nvalue = [3, 1]"] ;
823 -> 827 ;
828 [label="gini = 0.0\nsamples = 1\nvalue = [0, 1]"] ;
827 -> 828 ;
829 [label="gini = 0.0\nsamples = 3\nvalue = [3, 0]"] ;
827 -> 829 ;
830 [label="X[87] <= -0.708\ngini = 0.219\nsamples = 16\nvalue = [14, 2]"] ;
822 -> 830 ;
831 [label="gini = 0.0\nsamples = 2\nvalue = [0, 2]"] ;
830 -> 831 ;
832 [label="gini = 0.0\nsamples = 14\nvalue = [14, 0]"] ;
830 -> 832 ;
833 [label="X[136] <= 0.399\ngini = 0.496\nsamples = 180\nvalue = [98, 82]"] ;
719 -> 833 ;
834 [label="X[171] <= 1.732\ngini = 0.499\nsamples = 145\nvalue = [69, 76]"] ;
833 -> 834 ;
835 [label="X[41] <= 0.39\ngini = 0.496\nsamples = 121\nvalue = [66, 55]"] ;
834 -> 835 ;
836 [label="X[180] <= -0.867\ngini = 0.26\nsamples = 13\nvalue = [2, 11]"] ;
835 -> 836 ;
837 [label="gini = 0.0\nsamples = 2\nvalue = [2, 0]"] ;
836 -> 837 ;
838 [label="gini = 0.0\nsamples = 11\nvalue = [0, 11]"] ;
836 -> 838 ;
839 [label="X[32] <= 1.26\ngini = 0.483\nsamples = 108\nvalue = [64, 44]"] ;
835 -> 839 ;
840 [label="X[194] <= -1.845\ngini = 0.468\nsamples = 102\nvalue = [64, 38]"] ;
839 -> 840 ;
841 [label="X[136] <= -1.149\ngini = 0.219\nsamples = 8\nvalue = [1, 7]"] ;
840 -> 841 ;
842 [label="gini = 0.0\nsamples = 1\nvalue = [1, 0]"] ;
841 -> 842 ;
843 [label="gini = 0.0\nsamples = 7\nvalue = [0, 7]"] ;
841 -> 843 ;
844 [label="X[57] <= -0.11\ngini = 0.442\nsamples = 94\nvalue = [63, 31]"] ;
840 -> 844 ;
845 [label="gini = 0.0\nsamples = 5\nvalue = [0, 5]"] ;
844 -> 845 ;
846 [label="X[156] <= 0.961\ngini = 0.414\nsamples = 89\nvalue = [63, 26]"] ;
844 -> 846 ;
847 [label="X[80] <= 0.378\ngini = 0.467\nsamples = 70\nvalue = [44, 26]"] ;
846 -> 847 ;
848 [label="X[206] <= 0.362\ngini = 0.455\nsamples = 20\nvalue = [7, 13]"] ;
847 -> 848 ;
849 [label="X[202] <= -0.393\ngini = 0.305\nsamples = 16\nvalue = [3, 13]"] ;
848 -> 849 ;
850 [label="X[53] <= -1.309\ngini = 0.375\nsamples = 4\nvalue = [3, 1]"] ;
849 -> 850 ;
851 [label="gini = 0.0\nsamples = 1\nvalue = [0, 1]"] ;
850 -> 851 ;
852 [label="gini = 0.0\nsamples = 3\nvalue = [3, 0]"] ;
850 -> 852 ;
853 [label="gini = 0.0\nsamples = 12\nvalue = [0, 12]"] ;
849 -> 853 ;
854 [label="gini = 0.0\nsamples = 4\nvalue = [4, 0]"] ;
848 -> 854 ;
855 [label="X[156] <= 0.814\ngini = 0.385\nsamples = 50\nvalue = [37, 13]"] ;
847 -> 855 ;
856 [label="X[62] <= 0.246\ngini = 0.315\nsamples = 46\nvalue = [37, 9]"] ;
855 -> 856 ;
857 [label="X[67] <= 1.455\ngini = 0.145\nsamples = 38\nvalue = [35, 3]"] ;
856 -> 857 ;
858 [label="X[36] <= -0.262\ngini = 0.056\nsamples = 35\nvalue = [34, 1]"] ;
857 -> 858 ;
859 [label="gini = 0.0\nsamples = 1\nvalue = [0, 1]"] ;
858 -> 859 ;
860 [label="gini = 0.0\nsamples = 34\nvalue = [34, 0]"] ;
858 -> 860 ;
861 [label="X[91] <= -0.261\ngini = 0.444\nsamples = 3\nvalue = [1, 2]"] ;
857 -> 861 ;
862 [label="gini = 0.0\nsamples = 1\nvalue = [1, 0]"] ;
861 -> 862 ;
863 [label="gini = 0.0\nsamples = 2\nvalue = [0, 2]"] ;
861 -> 863 ;
864 [label="X[193] <= 1.931\ngini = 0.375\nsamples = 8\nvalue = [2, 6]"] ;
856 -> 864 ;
865 [label="gini = 0.0\nsamples = 6\nvalue = [0, 6]"] ;
864 -> 865 ;
866 [label="gini = 0.0\nsamples = 2\nvalue = [2, 0]"] ;
864 -> 866 ;
867 [label="gini = 0.0\nsamples = 4\nvalue = [0, 4]"] ;
855 -> 867 ;
868 [label="gini = 0.0\nsamples = 19\nvalue = [19, 0]"] ;
846 -> 868 ;
869 [label="gini = 0.0\nsamples = 6\nvalue = [0, 6]"] ;
839 -> 869 ;
870 [label="X[142] <= 1.381\ngini = 0.219\nsamples = 24\nvalue = [3, 21]"] ;
834 -> 870 ;
871 [label="X[197] <= -0.69\ngini = 0.087\nsamples = 22\nvalue = [1, 21]"] ;
870 -> 871 ;
872 [label="X[184] <= -0.412\ngini = 0.5\nsamples = 2\nvalue = [1, 1]"] ;
871 -> 872 ;
873 [label="gini = 0.0\nsamples = 1\nvalue = [1, 0]"] ;
872 -> 873 ;
874 [label="gini = 0.0\nsamples = 1\nvalue = [0, 1]"] ;
872 -> 874 ;
875 [label="gini = 0.0\nsamples = 20\nvalue = [0, 20]"] ;
871 -> 875 ;
876 [label="gini = 0.0\nsamples = 2\nvalue = [2, 0]"] ;
870 -> 876 ;
877 [label="X[143] <= -1.286\ngini = 0.284\nsamples = 35\nvalue = [29, 6]"] ;
833 -> 877 ;
878 [label="gini = 0.0\nsamples = 3\nvalue = [0, 3]"] ;
877 -> 878 ;
879 [label="X[82] <= -1.43\ngini = 0.17\nsamples = 32\nvalue = [29, 3]"] ;
877 -> 879 ;
880 [label="gini = 0.0\nsamples = 2\nvalue = [0, 2]"] ;
879 -> 880 ;
881 [label="X[85] <= -0.293\ngini = 0.064\nsamples = 30\nvalue = [29, 1]"] ;
879 -> 881 ;
882 [label="gini = 0.0\nsamples = 29\nvalue = [29, 0]"] ;
881 -> 882 ;
883 [label="gini = 0.0\nsamples = 1\nvalue = [0, 1]"] ;
881 -> 883 ;
884 [label="X[200] <= -0.868\ngini = 0.428\nsamples = 3094\nvalue = [2135, 959]"] ;
88 -> 884 ;
885 [label="X[197] <= 3.456\ngini = 0.252\nsamples = 61\nvalue = [9, 52]"] ;
884 -> 885 ;
886 [label="X[155] <= 0.719\ngini = 0.185\nsamples = 58\nvalue = [6, 52]"] ;
885 -> 886 ;
887 [label="gini = 0.0\nsamples = 47\nvalue = [0, 47]"] ;
886 -> 887 ;
888 [label="X[184] <= 0.206\ngini = 0.496\nsamples = 11\nvalue = [6, 5]"] ;
886 -> 888 ;
889 [label="X[67] <= -0.343\ngini = 0.278\nsamples = 6\nvalue = [1, 5]"] ;
888 -> 889 ;
890 [label="gini = 0.0\nsamples = 5\nvalue = [0, 5]"] ;
889 -> 890 ;
891 [label="gini = 0.0\nsamples = 1\nvalue = [1, 0]"] ;
889 -> 891 ;
892 [label="gini = 0.0\nsamples = 5\nvalue = [5, 0]"] ;
888 -> 892 ;
893 [label="gini = 0.0\nsamples = 3\nvalue = [3, 0]"] ;
885 -> 893 ;
894 [label="X[36] <= 0.111\ngini = 0.419\nsamples = 3033\nvalue = [2126, 907]"] ;
884 -> 894 ;
895 [label="X[23] <= -0.194\ngini = 0.395\nsamples = 2474\nvalue = [1804, 670]"] ;
894 -> 895 ;
896 [label="X[186] <= -1.489\ngini = 0.33\nsamples = 1230\nvalue = [974, 256]"] ;
895 -> 896 ;
897 [label="X[139] <= 0.084\ngini = 0.5\nsamples = 28\nvalue = [14, 14]"] ;
896 -> 897 ;
898 [label="X[156] <= 0.688\ngini = 0.432\nsamples = 19\nvalue = [6, 13]"] ;
897 -> 898 ;
899 [label="X[26] <= 0.913\ngini = 0.133\nsamples = 14\nvalue = [1, 13]"] ;
898 -> 899 ;
900 [label="gini = 0.0\nsamples = 13\nvalue = [0, 13]"] ;
899 -> 900 ;
901 [label="gini = 0.0\nsamples = 1\nvalue = [1, 0]"] ;
899 -> 901 ;
902 [label="gini = 0.0\nsamples = 5\nvalue = [5, 0]"] ;
898 -> 902 ;
903 [label="X[67] <= 1.569\ngini = 0.198\nsamples = 9\nvalue = [8, 1]"] ;
897 -> 903 ;
904 [label="gini = 0.0\nsamples = 8\nvalue = [8, 0]"] ;
903 -> 904 ;
905 [label="gini = 0.0\nsamples = 1\nvalue = [0, 1]"] ;
903 -> 905 ;
906 [label="X[122] <= -1.156\ngini = 0.322\nsamples = 1202\nvalue = [960, 242]"] ;
896 -> 906 ;
907 [label="X[126] <= -0.943\ngini = 0.399\nsamples = 327\nvalue = [237, 90]"] ;
906 -> 907 ;
908 [label="X[17] <= -0.632\ngini = 0.329\nsamples = 250\nvalue = [198, 52]"] ;
907 -> 908 ;
909 [label="X[94] <= 1.468\ngini = 0.268\nsamples = 207\nvalue = [174, 33]"] ;
908 -> 909 ;
910 [label="X[98] <= 1.857\ngini = 0.334\nsamples = 151\nvalue = [119, 32]"] ;
909 -> 910 ;
911 [label="X[184] <= 1.197\ngini = 0.276\nsamples = 133\nvalue = [111, 22]"] ;
910 -> 911 ;
912 [label="X[206] <= 0.613\ngini = 0.25\nsamples = 130\nvalue = [111, 19]"] ;
911 -> 912 ;
913 [label="X[120] <= -0.603\ngini = 0.343\nsamples = 82\nvalue = [64, 18]"] ;
912 -> 913 ;
914 [label="X[75] <= -1.0\ngini = 0.469\nsamples = 8\nvalue = [3, 5]"] ;
913 -> 914 ;
915 [label="gini = 0.0\nsamples = 3\nvalue = [3, 0]"] ;
914 -> 915 ;
916 [label="gini = 0.0\nsamples = 5\nvalue = [0, 5]"] ;
914 -> 916 ;
917 [label="X[196] <= 0.543\ngini = 0.29\nsamples = 74\nvalue = [61, 13]"] ;
913 -> 917 ;
918 [label="X[125] <= -0.958\ngini = 0.117\nsamples = 48\nvalue = [45, 3]"] ;
917 -> 918 ;
919 [label="X[117] <= -1.052\ngini = 0.081\nsamples = 47\nvalue = [45, 2]"] ;
918 -> 919 ;
920 [label="gini = 0.0\nsamples = 1\nvalue = [0, 1]"] ;
919 -> 920 ;
921 [label="X[37] <= 1.261\ngini = 0.043\nsamples = 46\nvalue = [45, 1]"] ;
919 -> 921 ;
922 [label="gini = 0.0\nsamples = 44\nvalue = [44, 0]"] ;
921 -> 922 ;
923 [label="X[168] <= 0.934\ngini = 0.5\nsamples = 2\nvalue = [1, 1]"] ;
921 -> 923 ;
924 [label="gini = 0.0\nsamples = 1\nvalue = [1, 0]"] ;
923 -> 924 ;
925 [label="gini = 0.0\nsamples = 1\nvalue = [0, 1]"] ;
923 -> 925 ;
926 [label="gini = 0.0\nsamples = 1\nvalue = [0, 1]"] ;
918 -> 926 ;
927 [label="X[112] <= -1.316\ngini = 0.473\nsamples = 26\nvalue = [16, 10]"] ;
917 -> 927 ;
928 [label="gini = 0.0\nsamples = 10\nvalue = [10, 0]"] ;
927 -> 928 ;
929 [label="X[148] <= -0.04\ngini = 0.469\nsamples = 16\nvalue = [6, 10]"] ;
927 -> 929 ;
930 [label="X[8] <= -0.07\ngini = 0.375\nsamples = 8\nvalue = [6, 2]"] ;
929 -> 930 ;
931 [label="gini = 0.0\nsamples = 6\nvalue = [6, 0]"] ;
930 -> 931 ;
932 [label="gini = 0.0\nsamples = 2\nvalue = [0, 2]"] ;
930 -> 932 ;
933 [label="gini = 0.0\nsamples = 8\nvalue = [0, 8]"] ;
929 -> 933 ;
934 [label="X[111] <= -1.586\ngini = 0.041\nsamples = 48\nvalue = [47, 1]"] ;
912 -> 934 ;
935 [label="gini = 0.0\nsamples = 1\nvalue = [0, 1]"] ;
934 -> 935 ;
936 [label="gini = 0.0\nsamples = 47\nvalue = [47, 0]"] ;
934 -> 936 ;
937 [label="gini = 0.0\nsamples = 3\nvalue = [0, 3]"] ;
911 -> 937 ;
938 [label="X[167] <= 2.192\ngini = 0.494\nsamples = 18\nvalue = [8, 10]"] ;
910 -> 938 ;
939 [label="X[173] <= 2.45\ngini = 0.355\nsamples = 13\nvalue = [3, 10]"] ;
938 -> 939 ;
940 [label="gini = 0.0\nsamples = 10\nvalue = [0, 10]"] ;
939 -> 940 ;
941 [label="gini = 0.0\nsamples = 3\nvalue = [3, 0]"] ;
939 -> 941 ;
942 [label="gini = 0.0\nsamples = 5\nvalue = [5, 0]"] ;
938 -> 942 ;
943 [label="X[109] <= -0.625\ngini = 0.035\nsamples = 56\nvalue = [55, 1]"] ;
909 -> 943 ;
944 [label="gini = 0.0\nsamples = 1\nvalue = [0, 1]"] ;
943 -> 944 ;
945 [label="gini = 0.0\nsamples = 55\nvalue = [55, 0]"] ;
943 -> 945 ;
946 [label="X[139] <= -0.957\ngini = 0.493\nsamples = 43\nvalue = [24, 19]"] ;
908 -> 946 ;
947 [label="X[26] <= 0.783\ngini = 0.434\nsamples = 22\nvalue = [7, 15]"] ;
946 -> 947 ;
948 [label="X[8] <= -1.542\ngini = 0.219\nsamples = 16\nvalue = [2, 14]"] ;
947 -> 948 ;
949 [label="X[97] <= 1.581\ngini = 0.444\nsamples = 3\nvalue = [2, 1]"] ;
948 -> 949 ;
950 [label="gini = 0.0\nsamples = 2\nvalue = [2, 0]"] ;
949 -> 950 ;
951 [label="gini = 0.0\nsamples = 1\nvalue = [0, 1]"] ;
949 -> 951 ;
952 [label="gini = 0.0\nsamples = 13\nvalue = [0, 13]"] ;
948 -> 952 ;
953 [label="X[164] <= -0.311\ngini = 0.278\nsamples = 6\nvalue = [5, 1]"] ;
947 -> 953 ;
954 [label="gini = 0.0\nsamples = 1\nvalue = [0, 1]"] ;
953 -> 954 ;
955 [label="gini = 0.0\nsamples = 5\nvalue = [5, 0]"] ;
953 -> 955 ;
956 [label="X[67] <= -0.143\ngini = 0.308\nsamples = 21\nvalue = [17, 4]"] ;
946 -> 956 ;
957 [label="gini = 0.0\nsamples = 16\nvalue = [16, 0]"] ;
956 -> 957 ;
958 [label="X[140] <= -0.658\ngini = 0.32\nsamples = 5\nvalue = [1, 4]"] ;
956 -> 958 ;
959 [label="gini = 0.0\nsamples = 1\nvalue = [1, 0]"] ;
958 -> 959 ;
960 [label="gini = 0.0\nsamples = 4\nvalue = [0, 4]"] ;
958 -> 960 ;
961 [label="X[23] <= -0.406\ngini = 0.5\nsamples = 77\nvalue = [39, 38]"] ;
907 -> 961 ;
962 [label="X[173] <= 1.799\ngini = 0.486\nsamples = 65\nvalue = [27, 38]"] ;
961 -> 962 ;
963 [label="X[41] <= -1.229\ngini = 0.436\nsamples = 56\nvalue = [18, 38]"] ;
962 -> 963 ;
964 [label="X[203] <= -0.677\ngini = 0.469\nsamples = 16\nvalue = [10, 6]"] ;
963 -> 964 ;
965 [label="gini = 0.0\nsamples = 4\nvalue = [0, 4]"] ;
964 -> 965 ;
966 [label="X[204] <= 0.486\ngini = 0.278\nsamples = 12\nvalue = [10, 2]"] ;
964 -> 966 ;
967 [label="X[196] <= -0.41\ngini = 0.444\nsamples = 3\nvalue = [1, 2]"] ;
966 -> 967 ;
968 [label="gini = 0.0\nsamples = 2\nvalue = [0, 2]"] ;
967 -> 968 ;
969 [label="gini = 0.0\nsamples = 1\nvalue = [1, 0]"] ;
967 -> 969 ;
970 [label="gini = 0.0\nsamples = 9\nvalue = [9, 0]"] ;
966 -> 970 ;
971 [label="X[134] <= 1.11\ngini = 0.32\nsamples = 40\nvalue = [8, 32]"] ;
963 -> 971 ;
972 [label="X[184] <= 1.037\ngini = 0.175\nsamples = 31\nvalue = [3, 28]"] ;
971 -> 972 ;
973 [label="X[10] <= 1.685\ngini = 0.069\nsamples = 28\nvalue = [1, 27]"] ;
972 -> 973 ;
974 [label="gini = 0.0\nsamples = 27\nvalue = [0, 27]"] ;
973 -> 974 ;
975 [label="gini = 0.0\nsamples = 1\nvalue = [1, 0]"] ;
973 -> 975 ;
976 [label="X[112] <= -0.255\ngini = 0.444\nsamples = 3\nvalue = [2, 1]"] ;
972 -> 976 ;
977 [label="gini = 0.0\nsamples = 1\nvalue = [0, 1]"] ;
976 -> 977 ;
978 [label="gini = 0.0\nsamples = 2\nvalue = [2, 0]"] ;
976 -> 978 ;
979 [label="X[13] <= -1.088\ngini = 0.494\nsamples = 9\nvalue = [5, 4]"] ;
971 -> 979 ;
980 [label="gini = 0.0\nsamples = 4\nvalue = [0, 4]"] ;
979 -> 980 ;
981 [label="gini = 0.0\nsamples = 5\nvalue = [5, 0]"] ;
979 -> 981 ;
982 [label="gini = 0.0\nsamples = 9\nvalue = [9, 0]"] ;
962 -> 982 ;
983 [label="gini = 0.0\nsamples = 12\nvalue = [12, 0]"] ;
961 -> 983 ;
984 [label="X[55] <= 1.083\ngini = 0.287\nsamples = 875\nvalue = [723, 152]"] ;
906 -> 984 ;
985 [label="X[110] <= 0.986\ngini = 0.324\nsamples = 619\nvalue = [493, 126]"] ;
984 -> 985 ;
986 [label="X[153] <= -0.931\ngini = 0.36\nsamples = 472\nvalue = [361, 111]"] ;
985 -> 986 ;
987 [label="X[57] <= -0.297\ngini = 0.245\nsamples = 7\nvalue = [1, 6]"] ;
986 -> 987 ;
988 [label="gini = 0.0\nsamples = 1\nvalue = [1, 0]"] ;
987 -> 988 ;
989 [label="gini = 0.0\nsamples = 6\nvalue = [0, 6]"] ;
987 -> 989 ;
990 [label="X[26] <= -1.559\ngini = 0.35\nsamples = 465\nvalue = [360, 105]"] ;
986 -> 990 ;
991 [label="gini = 0.0\nsamples = 3\nvalue = [0, 3]"] ;
990 -> 991 ;
992 [label="X[173] <= 1.773\ngini = 0.344\nsamples = 462\nvalue = [360, 102]"] ;
990 -> 992 ;
993 [label="X[96] <= 0.676\ngini = 0.327\nsamples = 437\nvalue = [347, 90]"] ;
992 -> 993 ;
994 [label="X[194] <= -1.416\ngini = 0.388\nsamples = 239\nvalue = [176, 63]"] ;
993 -> 994 ;
995 [label="X[69] <= 1.344\ngini = 0.488\nsamples = 19\nvalue = [8, 11]"] ;
994 -> 995 ;
996 [label="X[134] <= -0.653\ngini = 0.337\nsamples = 14\nvalue = [3, 11]"] ;
995 -> 996 ;
997 [label="X[144] <= -0.508\ngini = 0.375\nsamples = 4\nvalue = [3, 1]"] ;
996 -> 997 ;
998 [label="gini = 0.0\nsamples = 1\nvalue = [0, 1]"] ;
997 -> 998 ;
999 [label="gini = 0.0\nsamples = 3\nvalue = [3, 0]"] ;
997 -> 999 ;
1000 [label="gini = 0.0\nsamples = 10\nvalue = [0, 10]"] ;
996 -> 1000 ;
1001 [label="gini = 0.0\nsamples = 5\nvalue = [5, 0]"] ;
995 -> 1001 ;
1002 [label="X[178] <= 0.736\ngini = 0.361\nsamples = 220\nvalue = [168, 52]"] ;
994 -> 1002 ;
1003 [label="X[139] <= -0.389\ngini = 0.339\nsamples = 208\nvalue = [163, 45]"] ;
1002 -> 1003 ;
1004 [label="X[29] <= -0.041\ngini = 0.429\nsamples = 106\nvalue = [73, 33]"] ;
1003 -> 1004 ;
1005 [label="X[31] <= -0.497\ngini = 0.496\nsamples = 55\nvalue = [30, 25]"] ;
1004 -> 1005 ;
1006 [label="X[69] <= 0.594\ngini = 0.432\nsamples = 38\nvalue = [26, 12]"] ;
1005 -> 1006 ;
1007 [label="X[76] <= 0.321\ngini = 0.36\nsamples = 34\nvalue = [26, 8]"] ;
1006 -> 1007 ;
1008 [label="gini = 0.0\nsamples = 15\nvalue = [15, 0]"] ;
1007 -> 1008 ;
1009 [label="X[199] <= 0.583\ngini = 0.488\nsamples = 19\nvalue = [11, 8]"] ;
1007 -> 1009 ;
1010 [label="X[10] <= 1.382\ngini = 0.337\nsamples = 14\nvalue = [11, 3]"] ;
1009 -> 1010 ;
1011 [label="X[66] <= -0.496\ngini = 0.153\nsamples = 12\nvalue = [11, 1]"] ;
1010 -> 1011 ;
1012 [label="gini = 0.0\nsamples = 11\nvalue = [11, 0]"] ;
1011 -> 1012 ;
1013 [label="gini = 0.0\nsamples = 1\nvalue = [0, 1]"] ;
1011 -> 1013 ;
1014 [label="gini = 0.0\nsamples = 2\nvalue = [0, 2]"] ;
1010 -> 1014 ;
1015 [label="gini = 0.0\nsamples = 5\nvalue = [0, 5]"] ;
1009 -> 1015 ;
1016 [label="gini = 0.0\nsamples = 4\nvalue = [0, 4]"] ;
1006 -> 1016 ;
1017 [label="X[95] <= 1.466\ngini = 0.36\nsamples = 17\nvalue = [4, 13]"] ;
1005 -> 1017 ;
1018 [label="X[134] <= 1.169\ngini = 0.133\nsamples = 14\nvalue = [1, 13]"] ;
1017 -> 1018 ;
1019 [label="gini = 0.0\nsamples = 13\nvalue = [0, 13]"] ;
1018 -> 1019 ;
1020 [label="gini = 0.0\nsamples = 1\nvalue = [1, 0]"] ;
1018 -> 1020 ;
1021 [label="gini = 0.0\nsamples = 3\nvalue = [3, 0]"] ;
1017 -> 1021 ;
1022 [label="X[144] <= -0.842\ngini = 0.265\nsamples = 51\nvalue = [43, 8]"] ;
1004 -> 1022 ;
1023 [label="X[7] <= 0.373\ngini = 0.494\nsamples = 9\nvalue = [4, 5]"] ;
1022 -> 1023 ;
1024 [label="gini = 0.0\nsamples = 5\nvalue = [0, 5]"] ;
1023 -> 1024 ;
1025 [label="gini = 0.0\nsamples = 4\nvalue = [4, 0]"] ;
1023 -> 1025 ;
1026 [label="X[115] <= -1.773\ngini = 0.133\nsamples = 42\nvalue = [39, 3]"] ;
1022 -> 1026 ;
1027 [label="X[59] <= 0.588\ngini = 0.444\nsamples = 3\nvalue = [1, 2]"] ;
1026 -> 1027 ;
1028 [label="gini = 0.0\nsamples = 1\nvalue = [1, 0]"] ;
1027 -> 1028 ;
1029 [label="gini = 0.0\nsamples = 2\nvalue = [0, 2]"] ;
1027 -> 1029 ;
1030 [label="X[10] <= -0.863\ngini = 0.05\nsamples = 39\nvalue = [38, 1]"] ;
1026 -> 1030 ;
1031 [label="gini = 0.0\nsamples = 1\nvalue = [0, 1]"] ;
1030 -> 1031 ;
1032 [label="gini = 0.0\nsamples = 38\nvalue = [38, 0]"] ;
1030 -> 1032 ;
1033 [label="X[93] <= 1.039\ngini = 0.208\nsamples = 102\nvalue = [90, 12]"] ;
1003 -> 1033 ;
1034 [label="X[207] <= -1.43\ngini = 0.141\nsamples = 92\nvalue = [85, 7]"] ;
1033 -> 1034 ;
1035 [label="gini = 0.0\nsamples = 1\nvalue = [0, 1]"] ;
1034 -> 1035 ;
1036 [label="X[28] <= 1.641\ngini = 0.123\nsamples = 91\nvalue = [85, 6]"] ;
1034 -> 1036 ;
1037 [label="X[106] <= 0.903\ngini = 0.105\nsamples = 90\nvalue = [85, 5]"] ;
1036 -> 1037 ;
1038 [label="X[45] <= -0.102\ngini = 0.048\nsamples = 82\nvalue = [80, 2]"] ;
1037 -> 1038 ;
1039 [label="X[197] <= -0.19\ngini = 0.298\nsamples = 11\nvalue = [9, 2]"] ;
1038 -> 1039 ;
1040 [label="gini = 0.0\nsamples = 9\nvalue = [9, 0]"] ;
1039 -> 1040 ;
1041 [label="gini = 0.0\nsamples = 2\nvalue = [0, 2]"] ;
1039 -> 1041 ;
1042 [label="gini = 0.0\nsamples = 71\nvalue = [71, 0]"] ;
1038 -> 1042 ;
1043 [label="X[154] <= -1.208\ngini = 0.469\nsamples = 8\nvalue = [5, 3]"] ;
1037 -> 1043 ;
1044 [label="gini = 0.0\nsamples = 5\nvalue = [5, 0]"] ;
1043 -> 1044 ;
1045 [label="gini = 0.0\nsamples = 3\nvalue = [0, 3]"] ;
1043 -> 1045 ;
1046 [label="gini = 0.0\nsamples = 1\nvalue = [0, 1]"] ;
1036 -> 1046 ;
1047 [label="X[24] <= 0.534\ngini = 0.5\nsamples = 10\nvalue = [5, 5]"] ;
1033 -> 1047 ;
1048 [label="X[19] <= 0.264\ngini = 0.278\nsamples = 6\nvalue = [1, 5]"] ;
1047 -> 1048 ;
1049 [label="gini = 0.0\nsamples = 5\nvalue = [0, 5]"] ;
1048 -> 1049 ;
1050 [label="gini = 0.0\nsamples = 1\nvalue = [1, 0]"] ;
1048 -> 1050 ;
1051 [label="gini = 0.0\nsamples = 4\nvalue = [4, 0]"] ;
1047 -> 1051 ;
1052 [label="X[161] <= 0.526\ngini = 0.486\nsamples = 12\nvalue = [5, 7]"] ;
1002 -> 1052 ;
1053 [label="gini = 0.0\nsamples = 4\nvalue = [4, 0]"] ;
1052 -> 1053 ;
1054 [label="X[68] <= 0.112\ngini = 0.219\nsamples = 8\nvalue = [1, 7]"] ;
1052 -> 1054 ;
1055 [label="gini = 0.0\nsamples = 7\nvalue = [0, 7]"] ;
1054 -> 1055 ;
1056 [label="gini = 0.0\nsamples = 1\nvalue = [1, 0]"] ;
1054 -> 1056 ;
1057 [label="X[138] <= 0.589\ngini = 0.236\nsamples = 198\nvalue = [171, 27]"] ;
993 -> 1057 ;
1058 [label="X[37] <= -1.383\ngini = 0.186\nsamples = 183\nvalue = [164, 19]"] ;
1057 -> 1058 ;
1059 [label="X[12] <= 1.721\ngini = 0.444\nsamples = 3\nvalue = [1, 2]"] ;
1058 -> 1059 ;
1060 [label="gini = 0.0\nsamples = 2\nvalue = [0, 2]"] ;
1059 -> 1060 ;
1061 [label="gini = 0.0\nsamples = 1\nvalue = [1, 0]"] ;
1059 -> 1061 ;
1062 [label="X[70] <= 0.588\ngini = 0.171\nsamples = 180\nvalue = [163, 17]"] ;
1058 -> 1062 ;
1063 [label="X[203] <= 2.04\ngini = 0.141\nsamples = 170\nvalue = [157, 13]"] ;
1062 -> 1063 ;
1064 [label="X[131] <= -2.229\ngini = 0.132\nsamples = 169\nvalue = [157, 12]"] ;
1063 -> 1064 ;
1065 [label="gini = 0.0\nsamples = 1\nvalue = [0, 1]"] ;
1064 -> 1065 ;
1066 [label="X[66] <= -0.299\ngini = 0.122\nsamples = 168\nvalue = [157, 11]"] ;
1064 -> 1066 ;
1067 [label="X[109] <= 2.192\ngini = 0.113\nsamples = 167\nvalue = [157, 10]"] ;
1066 -> 1067 ;
1068 [label="X[151] <= -0.671\ngini = 0.103\nsamples = 166\nvalue = [157, 9]"] ;
1067 -> 1068 ;
1069 [label="X[99] <= 0.32\ngini = 0.26\nsamples = 39\nvalue = [33, 6]"] ;
1068 -> 1069 ;
1070 [label="gini = 0.0\nsamples = 20\nvalue = [20, 0]"] ;
1069 -> 1070 ;
1071 [label="X[76] <= 0.499\ngini = 0.432\nsamples = 19\nvalue = [13, 6]"] ;
1069 -> 1071 ;
1072 [label="X[89] <= 0.144\ngini = 0.408\nsamples = 7\nvalue = [2, 5]"] ;
1071 -> 1072 ;
1073 [label="gini = 0.0\nsamples = 2\nvalue = [2, 0]"] ;
1072 -> 1073 ;
1074 [label="gini = 0.0\nsamples = 5\nvalue = [0, 5]"] ;
1072 -> 1074 ;
1075 [label="X[78] <= -0.299\ngini = 0.153\nsamples = 12\nvalue = [11, 1]"] ;
1071 -> 1075 ;
1076 [label="gini = 0.0\nsamples = 1\nvalue = [0, 1]"] ;
1075 -> 1076 ;
1077 [label="gini = 0.0\nsamples = 11\nvalue = [11, 0]"] ;
1075 -> 1077 ;
1078 [label="X[154] <= -0.984\ngini = 0.046\nsamples = 127\nvalue = [124, 3]"] ;
1068 -> 1078 ;
1079 [label="X[175] <= -0.132\ngini = 0.375\nsamples = 8\nvalue = [6, 2]"] ;
1078 -> 1079 ;
1080 [label="gini = 0.0\nsamples = 6\nvalue = [6, 0]"] ;
1079 -> 1080 ;
1081 [label="gini = 0.0\nsamples = 2\nvalue = [0, 2]"] ;
1079 -> 1081 ;
1082 [label="X[178] <= -1.953\ngini = 0.017\nsamples = 119\nvalue = [118, 1]"] ;
1078 -> 1082 ;
1083 [label="X[125] <= -0.903\ngini = 0.444\nsamples = 3\nvalue = [2, 1]"] ;
1082 -> 1083 ;
1084 [label="gini = 0.0\nsamples = 1\nvalue = [0, 1]"] ;
1083 -> 1084 ;
1085 [label="gini = 0.0\nsamples = 2\nvalue = [2, 0]"] ;
1083 -> 1085 ;
1086 [label="gini = 0.0\nsamples = 116\nvalue = [116, 0]"] ;
1082 -> 1086 ;
1087 [label="gini = 0.0\nsamples = 1\nvalue = [0, 1]"] ;
1067 -> 1087 ;
1088 [label="gini = 0.0\nsamples = 1\nvalue = [0, 1]"] ;
1066 -> 1088 ;
1089 [label="gini = 0.0\nsamples = 1\nvalue = [0, 1]"] ;
1063 -> 1089 ;
1090 [label="X[110] <= -0.857\ngini = 0.48\nsamples = 10\nvalue = [6, 4]"] ;
1062 -> 1090 ;
1091 [label="gini = 0.0\nsamples = 5\nvalue = [5, 0]"] ;
1090 -> 1091 ;
1092 [label="X[34] <= -0.712\ngini = 0.32\nsamples = 5\nvalue = [1, 4]"] ;
1090 -> 1092 ;
1093 [label="gini = 0.0\nsamples = 4\nvalue = [0, 4]"] ;
1092 -> 1093 ;
1094 [label="gini = 0.0\nsamples = 1\nvalue = [1, 0]"] ;
1092 -> 1094 ;
1095 [label="X[162] <= 0.672\ngini = 0.498\nsamples = 15\nvalue = [7, 8]"] ;
1057 -> 1095 ;
1096 [label="X[81] <= -0.313\ngini = 0.245\nsamples = 7\nvalue = [6, 1]"] ;
1095 -> 1096 ;
1097 [label="gini = 0.0\nsamples = 1\nvalue = [0, 1]"] ;
1096 -> 1097 ;
1098 [label="gini = 0.0\nsamples = 6\nvalue = [6, 0]"] ;
1096 -> 1098 ;
1099 [label="X[160] <= -0.841\ngini = 0.219\nsamples = 8\nvalue = [1, 7]"] ;
1095 -> 1099 ;
1100 [label="gini = 0.0\nsamples = 1\nvalue = [1, 0]"] ;
1099 -> 1100 ;
1101 [label="gini = 0.0\nsamples = 7\nvalue = [0, 7]"] ;
1099 -> 1101 ;
1102 [label="X[137] <= -0.25\ngini = 0.499\nsamples = 25\nvalue = [13, 12]"] ;
992 -> 1102 ;
1103 [label="X[87] <= 0.422\ngini = 0.401\nsamples = 18\nvalue = [13, 5]"] ;
1102 -> 1103 ;
1104 [label="X[158] <= 2.291\ngini = 0.142\nsamples = 13\nvalue = [12, 1]"] ;
1103 -> 1104 ;
1105 [label="gini = 0.0\nsamples = 12\nvalue = [12, 0]"] ;
1104 -> 1105 ;
1106 [label="gini = 0.0\nsamples = 1\nvalue = [0, 1]"] ;
1104 -> 1106 ;
1107 [label="X[157] <= 0.124\ngini = 0.32\nsamples = 5\nvalue = [1, 4]"] ;
1103 -> 1107 ;
1108 [label="gini = 0.0\nsamples = 1\nvalue = [1, 0]"] ;
1107 -> 1108 ;
1109 [label="gini = 0.0\nsamples = 4\nvalue = [0, 4]"] ;
1107 -> 1109 ;
1110 [label="gini = 0.0\nsamples = 7\nvalue = [0, 7]"] ;
1102 -> 1110 ;
1111 [label="X[173] <= -0.795\ngini = 0.183\nsamples = 147\nvalue = [132, 15]"] ;
985 -> 1111 ;
1112 [label="X[106] <= 0.592\ngini = 0.497\nsamples = 13\nvalue = [7, 6]"] ;
1111 -> 1112 ;
1113 [label="gini = 0.0\nsamples = 5\nvalue = [5, 0]"] ;
1112 -> 1113 ;
1114 [label="X[131] <= 0.524\ngini = 0.375\nsamples = 8\nvalue = [2, 6]"] ;
1112 -> 1114 ;
1115 [label="gini = 0.0\nsamples = 6\nvalue = [0, 6]"] ;
1114 -> 1115 ;
1116 [label="gini = 0.0\nsamples = 2\nvalue = [2, 0]"] ;
1114 -> 1116 ;
1117 [label="X[115] <= -1.803\ngini = 0.125\nsamples = 134\nvalue = [125, 9]"] ;
1111 -> 1117 ;
1118 [label="X[141] <= -0.305\ngini = 0.444\nsamples = 3\nvalue = [1, 2]"] ;
1117 -> 1118 ;
1119 [label="gini = 0.0\nsamples = 2\nvalue = [0, 2]"] ;
1118 -> 1119 ;
1120 [label="gini = 0.0\nsamples = 1\nvalue = [1, 0]"] ;
1118 -> 1120 ;
1121 [label="X[3] <= -1.362\ngini = 0.101\nsamples = 131\nvalue = [124, 7]"] ;
1117 -> 1121 ;
1122 [label="X[46] <= -0.466\ngini = 0.426\nsamples = 13\nvalue = [9, 4]"] ;
1121 -> 1122 ;
1123 [label="X[41] <= -1.293\ngini = 0.32\nsamples = 5\nvalue = [1, 4]"] ;
1122 -> 1123 ;
1124 [label="gini = 0.0\nsamples = 1\nvalue = [1, 0]"] ;
1123 -> 1124 ;
1125 [label="gini = 0.0\nsamples = 4\nvalue = [0, 4]"] ;
1123 -> 1125 ;
1126 [label="gini = 0.0\nsamples = 8\nvalue = [8, 0]"] ;
1122 -> 1126 ;
1127 [label="X[157] <= -1.556\ngini = 0.05\nsamples = 118\nvalue = [115, 3]"] ;
1121 -> 1127 ;
1128 [label="gini = 0.0\nsamples = 1\nvalue = [0, 1]"] ;
1127 -> 1128 ;
1129 [label="X[19] <= 0.94\ngini = 0.034\nsamples = 117\nvalue = [115, 2]"] ;
1127 -> 1129 ;
1130 [label="X[200] <= -0.517\ngini = 0.017\nsamples = 115\nvalue = [114, 1]"] ;
1129 -> 1130 ;
1131 [label="X[79] <= -0.55\ngini = 0.444\nsamples = 3\nvalue = [2, 1]"] ;
1130 -> 1131 ;
1132 [label="gini = 0.0\nsamples = 1\nvalue = [0, 1]"] ;
1131 -> 1132 ;
1133 [label="gini = 0.0\nsamples = 2\nvalue = [2, 0]"] ;
1131 -> 1133 ;
1134 [label="gini = 0.0\nsamples = 112\nvalue = [112, 0]"] ;
1130 -> 1134 ;
1135 [label="X[12] <= 0.53\ngini = 0.5\nsamples = 2\nvalue = [1, 1]"] ;
1129 -> 1135 ;
1136 [label="gini = 0.0\nsamples = 1\nvalue = [1, 0]"] ;
1135 -> 1136 ;
1137 [label="gini = 0.0\nsamples = 1\nvalue = [0, 1]"] ;
1135 -> 1137 ;
1138 [label="X[146] <= 3.536\ngini = 0.182\nsamples = 256\nvalue = [230, 26]"] ;
984 -> 1138 ;
1139 [label="X[71] <= 1.463\ngini = 0.171\nsamples = 254\nvalue = [230, 24]"] ;
1138 -> 1139 ;
1140 [label="X[12] <= -0.952\ngini = 0.159\nsamples = 252\nvalue = [230, 22]"] ;
1139 -> 1140 ;
1141 [label="X[23] <= -0.437\ngini = 0.496\nsamples = 11\nvalue = [6, 5]"] ;
1140 -> 1141 ;
1142 [label="X[92] <= 0.862\ngini = 0.278\nsamples = 6\nvalue = [1, 5]"] ;
1141 -> 1142 ;
1143 [label="gini = 0.0\nsamples = 5\nvalue = [0, 5]"] ;
1142 -> 1143 ;
1144 [label="gini = 0.0\nsamples = 1\nvalue = [1, 0]"] ;
1142 -> 1144 ;
1145 [label="gini = 0.0\nsamples = 5\nvalue = [5, 0]"] ;
1141 -> 1145 ;
1146 [label="X[202] <= 1.775\ngini = 0.131\nsamples = 241\nvalue = [224, 17]"] ;
1140 -> 1146 ;
1147 [label="X[155] <= -1.691\ngini = 0.124\nsamples = 240\nvalue = [224, 16]"] ;
1146 -> 1147 ;
1148 [label="gini = 0.0\nsamples = 1\nvalue = [0, 1]"] ;
1147 -> 1148 ;
1149 [label="X[175] <= 2.665\ngini = 0.118\nsamples = 239\nvalue = [224, 15]"] ;
1147 -> 1149 ;
1150 [label="X[176] <= -1.54\ngini = 0.111\nsamples = 238\nvalue = [224, 14]"] ;
1149 -> 1150 ;
1151 [label="gini = 0.0\nsamples = 1\nvalue = [0, 1]"] ;
1150 -> 1151 ;
1152 [label="X[161] <= 2.024\ngini = 0.104\nsamples = 237\nvalue = [224, 13]"] ;
1150 -> 1152 ;
1153 [label="X[73] <= -2.113\ngini = 0.09\nsamples = 233\nvalue = [222, 11]"] ;
1152 -> 1153 ;
1154 [label="X[193] <= 1.188\ngini = 0.444\nsamples = 6\nvalue = [4, 2]"] ;
1153 -> 1154 ;
1155 [label="gini = 0.0\nsamples = 4\nvalue = [4, 0]"] ;
1154 -> 1155 ;
1156 [label="gini = 0.0\nsamples = 2\nvalue = [0, 2]"] ;
1154 -> 1156 ;
1157 [label="X[41] <= -1.447\ngini = 0.076\nsamples = 227\nvalue = [218, 9]"] ;
1153 -> 1157 ;
1158 [label="X[86] <= 0.665\ngini = 0.408\nsamples = 7\nvalue = [5, 2]"] ;
1157 -> 1158 ;
1159 [label="gini = 0.0\nsamples = 5\nvalue = [5, 0]"] ;
1158 -> 1159 ;
1160 [label="gini = 0.0\nsamples = 2\nvalue = [0, 2]"] ;
1158 -> 1160 ;
1161 [label="X[159] <= 1.996\ngini = 0.062\nsamples = 220\nvalue = [213, 7]"] ;
1157 -> 1161 ;
1162 [label="X[194] <= 0.666\ngini = 0.039\nsamples = 201\nvalue = [197, 4]"] ;
1161 -> 1162 ;
1163 [label="X[10] <= -0.961\ngini = 0.011\nsamples = 174\nvalue = [173, 1]"] ;
1162 -> 1163 ;
1164 [label="X[26] <= 0.184\ngini = 0.375\nsamples = 4\nvalue = [3, 1]"] ;
1163 -> 1164 ;
1165 [label="gini = 0.0\nsamples = 1\nvalue = [0, 1]"] ;
1164 -> 1165 ;
1166 [label="gini = 0.0\nsamples = 3\nvalue = [3, 0]"] ;
1164 -> 1166 ;
1167 [label="gini = 0.0\nsamples = 170\nvalue = [170, 0]"] ;
1163 -> 1167 ;
1168 [label="X[194] <= 0.718\ngini = 0.198\nsamples = 27\nvalue = [24, 3]"] ;
1162 -> 1168 ;
1169 [label="X[207] <= 0.813\ngini = 0.444\nsamples = 3\nvalue = [1, 2]"] ;
1168 -> 1169 ;
1170 [label="gini = 0.0\nsamples = 2\nvalue = [0, 2]"] ;
1169 -> 1170 ;
1171 [label="gini = 0.0\nsamples = 1\nvalue = [1, 0]"] ;
1169 -> 1171 ;
1172 [label="X[42] <= 1.152\ngini = 0.08\nsamples = 24\nvalue = [23, 1]"] ;
1168 -> 1172 ;
1173 [label="gini = 0.0\nsamples = 23\nvalue = [23, 0]"] ;
1172 -> 1173 ;
1174 [label="gini = 0.0\nsamples = 1\nvalue = [0, 1]"] ;
1172 -> 1174 ;
1175 [label="X[158] <= 2.254\ngini = 0.266\nsamples = 19\nvalue = [16, 3]"] ;
1161 -> 1175 ;
1176 [label="X[94] <= 1.23\ngini = 0.49\nsamples = 7\nvalue = [4, 3]"] ;
1175 -> 1176 ;
1177 [label="gini = 0.0\nsamples = 4\nvalue = [4, 0]"] ;
1176 -> 1177 ;
1178 [label="gini = 0.0\nsamples = 3\nvalue = [0, 3]"] ;
1176 -> 1178 ;
1179 [label="gini = 0.0\nsamples = 12\nvalue = [12, 0]"] ;
1175 -> 1179 ;
1180 [label="X[56] <= 1.104\ngini = 0.5\nsamples = 4\nvalue = [2, 2]"] ;
1152 -> 1180 ;
1181 [label="gini = 0.0\nsamples = 2\nvalue = [0, 2]"] ;
1180 -> 1181 ;
1182 [label="gini = 0.0\nsamples = 2\nvalue = [2, 0]"] ;
1180 -> 1182 ;
1183 [label="gini = 0.0\nsamples = 1\nvalue = [0, 1]"] ;
1149 -> 1183 ;
1184 [label="gini = 0.0\nsamples = 1\nvalue = [0, 1]"] ;
1146 -> 1184 ;
1185 [label="gini = 0.0\nsamples = 2\nvalue = [0, 2]"] ;
1139 -> 1185 ;
1186 [label="gini = 0.0\nsamples = 2\nvalue = [0, 2]"] ;
1138 -> 1186 ;
1187 [label="X[30] <= -1.083\ngini = 0.444\nsamples = 1244\nvalue = [830, 414]"] ;
895 -> 1187 ;
1188 [label="X[113] <= -1.268\ngini = 0.5\nsamples = 213\nvalue = [109, 104]"] ;
1187 -> 1188 ;
1189 [label="X[180] <= -0.926\ngini = 0.353\nsamples = 35\nvalue = [27, 8]"] ;
1188 -> 1189 ;
1190 [label="X[124] <= 0.72\ngini = 0.278\nsamples = 6\nvalue = [1, 5]"] ;
1189 -> 1190 ;
1191 [label="gini = 0.0\nsamples = 1\nvalue = [1, 0]"] ;
1190 -> 1191 ;
1192 [label="gini = 0.0\nsamples = 5\nvalue = [0, 5]"] ;
1190 -> 1192 ;
1193 [label="X[185] <= 0.818\ngini = 0.185\nsamples = 29\nvalue = [26, 3]"] ;
1189 -> 1193 ;
1194 [label="X[188] <= 1.106\ngini = 0.071\nsamples = 27\nvalue = [26, 1]"] ;
1193 -> 1194 ;
1195 [label="gini = 0.0\nsamples = 25\nvalue = [25, 0]"] ;
1194 -> 1195 ;
1196 [label="X[169] <= -0.665\ngini = 0.5\nsamples = 2\nvalue = [1, 1]"] ;
1194 -> 1196 ;
1197 [label="gini = 0.0\nsamples = 1\nvalue = [1, 0]"] ;
1196 -> 1197 ;
1198 [label="gini = 0.0\nsamples = 1\nvalue = [0, 1]"] ;
1196 -> 1198 ;
1199 [label="gini = 0.0\nsamples = 2\nvalue = [0, 2]"] ;
1193 -> 1199 ;
1200 [label="X[32] <= 1.869\ngini = 0.497\nsamples = 178\nvalue = [82, 96]"] ;
1188 -> 1200 ;
1201 [label="X[126] <= -1.341\ngini = 0.496\nsamples = 131\nvalue = [71, 60]"] ;
1200 -> 1201 ;
1202 [label="X[176] <= 2.885\ngini = 0.198\nsamples = 27\nvalue = [24, 3]"] ;
1201 -> 1202 ;
1203 [label="X[12] <= 0.571\ngini = 0.077\nsamples = 25\nvalue = [24, 1]"] ;
1202 -> 1203 ;
1204 [label="gini = 0.0\nsamples = 24\nvalue = [24, 0]"] ;
1203 -> 1204 ;
1205 [label="gini = 0.0\nsamples = 1\nvalue = [0, 1]"] ;
1203 -> 1205 ;
1206 [label="gini = 0.0\nsamples = 2\nvalue = [0, 2]"] ;
1202 -> 1206 ;
1207 [label="X[123] <= -0.655\ngini = 0.495\nsamples = 104\nvalue = [47, 57]"] ;
1201 -> 1207 ;
1208 [label="X[184] <= -1.318\ngini = 0.413\nsamples = 55\nvalue = [16, 39]"] ;
1207 -> 1208 ;
1209 [label="X[25] <= -0.904\ngini = 0.426\nsamples = 13\nvalue = [9, 4]"] ;
1208 -> 1209 ;
1210 [label="gini = 0.0\nsamples = 4\nvalue = [0, 4]"] ;
1209 -> 1210 ;
1211 [label="gini = 0.0\nsamples = 9\nvalue = [9, 0]"] ;
1209 -> 1211 ;
1212 [label="X[126] <= -1.109\ngini = 0.278\nsamples = 42\nvalue = [7, 35]"] ;
1208 -> 1212 ;
1213 [label="X[126] <= -1.189\ngini = 0.5\nsamples = 10\nvalue = [5, 5]"] ;
1212 -> 1213 ;
1214 [label="gini = 0.0\nsamples = 5\nvalue = [0, 5]"] ;
1213 -> 1214 ;
1215 [label="gini = 0.0\nsamples = 5\nvalue = [5, 0]"] ;
1213 -> 1215 ;
1216 [label="X[84] <= -0.802\ngini = 0.117\nsamples = 32\nvalue = [2, 30]"] ;
1212 -> 1216 ;
1217 [label="gini = 0.0\nsamples = 1\nvalue = [1, 0]"] ;
1216 -> 1217 ;
1218 [label="X[42] <= -1.335\ngini = 0.062\nsamples = 31\nvalue = [1, 30]"] ;
1216 -> 1218 ;
1219 [label="gini = 0.0\nsamples = 1\nvalue = [1, 0]"] ;
1218 -> 1219 ;
1220 [label="gini = 0.0\nsamples = 30\nvalue = [0, 30]"] ;
1218 -> 1220 ;
1221 [label="X[166] <= -0.307\ngini = 0.465\nsamples = 49\nvalue = [31, 18]"] ;
1207 -> 1221 ;
1222 [label="X[188] <= -1.765\ngini = 0.337\nsamples = 14\nvalue = [3, 11]"] ;
1221 -> 1222 ;
1223 [label="gini = 0.0\nsamples = 3\nvalue = [3, 0]"] ;
1222 -> 1223 ;
1224 [label="gini = 0.0\nsamples = 11\nvalue = [0, 11]"] ;
1222 -> 1224 ;
1225 [label="X[78] <= -0.75\ngini = 0.32\nsamples = 35\nvalue = [28, 7]"] ;
1221 -> 1225 ;
1226 [label="X[197] <= 1.942\ngini = 0.444\nsamples = 6\nvalue = [2, 4]"] ;
1225 -> 1226 ;
1227 [label="gini = 0.0\nsamples = 4\nvalue = [0, 4]"] ;
1226 -> 1227 ;
1228 [label="gini = 0.0\nsamples = 2\nvalue = [2, 0]"] ;
1226 -> 1228 ;
1229 [label="X[99] <= 1.282\ngini = 0.185\nsamples = 29\nvalue = [26, 3]"] ;
1225 -> 1229 ;
1230 [label="gini = 0.0\nsamples = 23\nvalue = [23, 0]"] ;
1229 -> 1230 ;
1231 [label="X[91] <= -0.102\ngini = 0.5\nsamples = 6\nvalue = [3, 3]"] ;
1229 -> 1231 ;
1232 [label="gini = 0.0\nsamples = 3\nvalue = [3, 0]"] ;
1231 -> 1232 ;
1233 [label="gini = 0.0\nsamples = 3\nvalue = [0, 3]"] ;
1231 -> 1233 ;
1234 [label="X[25] <= -0.697\ngini = 0.359\nsamples = 47\nvalue = [11, 36]"] ;
1200 -> 1234 ;
1235 [label="X[113] <= 0.166\ngini = 0.493\nsamples = 25\nvalue = [11, 14]"] ;
1234 -> 1235 ;
1236 [label="X[201] <= -0.444\ngini = 0.408\nsamples = 14\nvalue = [10, 4]"] ;
1235 -> 1236 ;
1237 [label="X[184] <= -0.966\ngini = 0.32\nsamples = 5\nvalue = [1, 4]"] ;
1236 -> 1237 ;
1238 [label="gini = 0.0\nsamples = 1\nvalue = [1, 0]"] ;
1237 -> 1238 ;
1239 [label="gini = 0.0\nsamples = 4\nvalue = [0, 4]"] ;
1237 -> 1239 ;
1240 [label="gini = 0.0\nsamples = 9\nvalue = [9, 0]"] ;
1236 -> 1240 ;
1241 [label="X[207] <= 2.238\ngini = 0.165\nsamples = 11\nvalue = [1, 10]"] ;
1235 -> 1241 ;
1242 [label="gini = 0.0\nsamples = 10\nvalue = [0, 10]"] ;
1241 -> 1242 ;
1243 [label="gini = 0.0\nsamples = 1\nvalue = [1, 0]"] ;
1241 -> 1243 ;
1244 [label="gini = 0.0\nsamples = 22\nvalue = [0, 22]"] ;
1234 -> 1244 ;
1245 [label="X[180] <= -0.696\ngini = 0.421\nsamples = 1031\nvalue = [721, 310]"] ;
1187 -> 1245 ;
1246 [label="X[61] <= 1.365\ngini = 0.278\nsamples = 216\nvalue = [180, 36]"] ;
1245 -> 1246 ;
